<?xml version="1.0"?>
<opencv_storage>
<cascade>
  <stageType>BOOST</stageType>
  <featureType>HAAR</featureType>
  <height>20</height>
  <width>20</width>
  <stageParams>
    <boostType>GAB</boostType>
    <minHitRate>9.9500000476837158e-01</minHitRate>
    <maxFalseAlarm>5.0000000000000000e-01</maxFalseAlarm>
    <weightTrimRate>9.4999998807907104e-01</weightTrimRate>
    <maxDepth>1</maxDepth>
    <maxWeakCount>100</maxWeakCount></stageParams>
  <featureParams>
    <maxCatCount>0</maxCatCount>
    <featSize>1</featSize>
    <mode>BASIC</mode></featureParams>
  <stageNum>17</stageNum>
  <stages>
    <!-- stage 0 -->
    <_>
      <maxWeakCount>4</maxWeakCount>
      <stageThreshold>-1.6673797369003296e+00</stageThreshold>
      <weakClassifiers>
        <_>
          <internalNodes>
            0 -1 15 2.7479071170091629e-02</internalNodes>
          <leafValues>
            -8.6538463830947876e-01 6.2500000000000000e-01</leafValues></_>
        <_>
          <internalNodes>
            0 -1 52 2.0823220256716013e-03</internalNodes>
          <leafValues>
            -7.3161029815673828e-01 6.9270694255828857e-01</leafValues></_>
        <_>
          <internalNodes>
            0 -1 20 4.9773167818784714e-02</internalNodes>
          <leafValues>
            -6.7446655035018921e-01 7.9378920793533325e-01</leafValues></_>
        <_>
          <internalNodes>
            0 -1 18 7.1769133210182190e-02</internalNodes>
          <leafValues>
            -7.8078669309616089e-01 6.0408169031143188e-01</leafValues></_></weakClassifiers></_>
    <!-- stage 1 -->
    <_>
      <maxWeakCount>4</maxWeakCount>
      <stageThreshold>-1.6240272521972656e+00</stageThreshold>
      <weakClassifiers>
        <_>
          <internalNodes>
            0 -1 38 4.1323411278426647e-03</internalNodes>
          <leafValues>
            -7.8577858209609985e-01 8.2022470235824585e-01</leafValues></_>
        <_>
          <internalNodes>
            0 -1 13 -3.9633385837078094e-02</internalNodes>
          <leafValues>
            5.7027566432952881e-01 -6.9788360595703125e-01</leafValues></_>
        <_>
          <internalNodes>
            0 -1 57 -3.3568834624020383e-05</internalNodes>
          <leafValues>
            5.4659283161163330e-01 -8.0618309974670410e-01</leafValues></_>
        <_>
          <internalNodes>
            0 -1 61 5.1330183632671833e-03</internalNodes>
          <leafValues>
            -5.9346437454223633e-01 6.6581803560256958e-01</leafValues></_></weakClassifiers></_>
    <!-- stage 2 -->
    <_>
      <maxWeakCount>3</maxWeakCount>
      <stageThreshold>-1.4204070568084717e+00</stageThreshold>
      <weakClassifiers>
        <_>
          <internalNodes>
            0 -1 53 6.4300713129341602e-03</internalNodes>
          <leafValues>
            -8.8457500934600830e-01 1.7408907413482666e-01</leafValues></_>
        <_>
          <internalNodes>
            0 -1 28 -7.3372313636355102e-05</internalNodes>
          <leafValues>
            2.5794312357902527e-01 -8.2558327913284302e-01</leafValues></_>
        <_>
          <internalNodes>
            0 -1 50 7.2184542659670115e-05</internalNodes>
          <leafValues>
            -7.9377514123916626e-01 4.0163853764533997e-01</leafValues></_></weakClassifiers></_>
    <!-- stage 3 -->
    <_>
      <maxWeakCount>3</maxWeakCount>
      <stageThreshold>-1.3774416446685791e+00</stageThreshold>
      <weakClassifiers>
        <_>
          <internalNodes>
            0 -1 53 6.4191836863756180e-03</internalNodes>
          <leafValues>
            -8.8775509595870972e-01 3.1818181276321411e-01</leafValues></_>
        <_>
          <internalNodes>
            0 -1 60 -1.6508327098563313e-04</internalNodes>
          <leafValues>
            2.0155645906925201e-01 -7.9131275415420532e-01</leafValues></_>
        <_>
          <internalNodes>
            0 -1 47 8.7907612323760986e-03</internalNodes>
          <leafValues>
            -6.9124299287796021e-01 4.7953563928604126e-01</leafValues></_></weakClassifiers></_>
    <!-- stage 4 -->
    <_>
      <maxWeakCount>5</maxWeakCount>
      <stageThreshold>-1.3358589410781860e+00</stageThreshold>
      <weakClassifiers>
        <_>
          <internalNodes>
            0 -1 43 -2.8279782272875309e-03</internalNodes>
          <leafValues>
            3.2954546809196472e-01 -8.3789062500000000e-01</leafValues></_>
        <_>
          <internalNodes>
            0 -1 56 5.7770661078393459e-04</internalNodes>
          <leafValues>
            -7.7775877714157104e-01 3.8413941860198975e-01</leafValues></_>
        <_>
          <internalNodes>
            0 -1 64 -6.4664694946259260e-04</internalNodes>
          <leafValues>
            3.8620150089263916e-01 -7.3703658580780029e-01</leafValues></_>
        <_>
          <internalNodes>
            0 -1 36 1.5435414388775826e-02</internalNodes>
          <leafValues>
            -5.7624512910842896e-01 5.7919722795486450e-01</leafValues></_>
        <_>
          <internalNodes>
            0 -1 54 2.9571924824267626e-03</internalNodes>
          <leafValues>
            -6.8560826778411865e-01 4.8038557171821594e-01</leafValues></_></weakClassifiers></_>
    <!-- stage 5 -->
    <_>
      <maxWeakCount>5</maxWeakCount>
      <stageThreshold>-1.4880622625350952e+00</stageThreshold>
      <weakClassifiers>
        <_>
          <internalNodes>
            0 -1 4 5.7288486510515213e-02</internalNodes>
          <leafValues>
            -7.7637511491775513e-01 6.7032968997955322e-01</leafValues></_>
        <_>
          <internalNodes>
            0 -1 17 -7.6879546046257019e-02</internalNodes>
          <leafValues>
            5.0249618291854858e-01 -6.0357707738876343e-01</leafValues></_>
        <_>
          <internalNodes>
            0 -1 66 2.7559903173823841e-05</internalNodes>
          <leafValues>
            -7.5611937046051025e-01 3.7203788757324219e-01</leafValues></_>
        <_>
          <internalNodes>
            0 -1 41 -7.4366439366713166e-04</internalNodes>
          <leafValues>
            4.8519727587699890e-01 -5.9690403938293457e-01</leafValues></_>
        <_>
          <internalNodes>
            0 -1 7 -6.9312220439314842e-03</internalNodes>
          <leafValues>
            3.1956234574317932e-01 -9.6534532308578491e-01</leafValues></_></weakClassifiers></_>
    <!-- stage 6 -->
    <_>
      <maxWeakCount>3</maxWeakCount>
      <stageThreshold>-7.6928865909576416e-01</stageThreshold>
      <weakClassifiers>
        <_>
          <internalNodes>
            0 -1 30 -2.8171351179480553e-02</internalNodes>
          <leafValues>
            4.1666665673255920e-01 -7.8703701496124268e-01</leafValues></_>
        <_>
          <internalNodes>
            0 -1 9 -2.6068118214607239e-01</internalNodes>
          <leafValues>
            4.2962279915809631e-01 -6.7316532135009766e-01</leafValues></_>
        <_>
          <internalNodes>
            0 -1 27 -2.6261091232299805e-01</internalNodes>
          <leafValues>
            7.4090999364852905e-01 -4.1187444329261780e-01</leafValues></_></weakClassifiers></_>
    <!-- stage 7 -->
    <_>
      <maxWeakCount>2</maxWeakCount>
      <stageThreshold>-8.1967192888259888e-01</stageThreshold>
      <weakClassifiers>
        <_>
          <internalNodes>
            0 -1 45 1.5493363142013550e-02</internalNodes>
          <leafValues>
            -9.1888761520385742e-01 -2.0771512761712074e-02</leafValues></_>
        <_>
          <internalNodes>
            0 -1 63 7.1160466177389026e-04</internalNodes>
          <leafValues>
            -7.9890042543411255e-01 2.3469339311122894e-01</leafValues></_></weakClassifiers></_>
    <!-- stage 8 -->
    <_>
      <maxWeakCount>5</maxWeakCount>
      <stageThreshold>-1.4271562099456787e+00</stageThreshold>
      <weakClassifiers>
        <_>
          <internalNodes>
            0 -1 0 4.5740611851215363e-02</internalNodes>
          <leafValues>
            -7.7495461702346802e-01 5.5102038383483887e-01</leafValues></_>
        <_>
          <internalNodes>
            0 -1 19 -2.7100223302841187e-01</internalNodes>
          <leafValues>
            5.3581374883651733e-01 -6.0268872976303101e-01</leafValues></_>
        <_>
          <internalNodes>
            0 -1 40 -8.2961207954213023e-04</internalNodes>
          <leafValues>
            4.0276533365249634e-01 -7.5647950172424316e-01</leafValues></_>
        <_>
          <internalNodes>
            0 -1 51 -7.3629064718261361e-04</internalNodes>
          <leafValues>
            2.6358318328857422e-01 -9.6346753835678101e-01</leafValues></_>
        <_>
          <internalNodes>
            0 -1 32 2.0383433438837528e-03</internalNodes>
          <leafValues>
            -6.2530642747879028e-01 4.4338348507881165e-01</leafValues></_></weakClassifiers></_>
    <!-- stage 9 -->
    <_>
      <maxWeakCount>7</maxWeakCount>
      <stageThreshold>-1.8306418657302856e+00</stageThreshold>
      <weakClassifiers>
        <_>
          <internalNodes>
            0 -1 58 6.2710926868021488e-03</internalNodes>
          <leafValues>
            -8.0377358198165894e-01 3.7142857909202576e-01</leafValues></_>
        <_>
          <internalNodes>
            0 -1 22 4.2640291154384613e-02</internalNodes>
          <leafValues>
            -5.3759372234344482e-01 5.3994959592819214e-01</leafValues></_>
        <_>
          <internalNodes>
            0 -1 62 -6.0456776991486549e-03</internalNodes>
          <leafValues>
            5.8035659790039063e-01 -4.4855132699012756e-01</leafValues></_>
        <_>
          <internalNodes>
            0 -1 42 9.3193491920828819e-03</internalNodes>
          <leafValues>
            2.5687140226364136e-01 -9.3925052881240845e-01</leafValues></_>
        <_>
          <internalNodes>
            0 -1 34 -4.5482080429792404e-02</internalNodes>
          <leafValues>
            -1. 2.4135288596153259e-01</leafValues></_>
        <_>
          <internalNodes>
            0 -1 35 3.5913882311433554e-04</internalNodes>
          <leafValues>
            2.3947031795978546e-01 -7.9807412624359131e-01</leafValues></_>
        <_>
          <internalNodes>
            0 -1 26 -2.8052916750311852e-03</internalNodes>
          <leafValues>
            -7.9019677639007568e-01 2.5912666320800781e-01</leafValues></_></weakClassifiers></_>
    <!-- stage 10 -->
    <_>
      <maxWeakCount>5</maxWeakCount>
      <stageThreshold>-1.8897442817687988e+00</stageThreshold>
      <weakClassifiers>
        <_>
          <internalNodes>
            0 -1 46 2.7301512658596039e-02</internalNodes>
          <leafValues>
            -7.5241440534591675e-01 9.3442624807357788e-01</leafValues></_>
        <_>
          <internalNodes>
            0 -1 39 -1.0816528461873531e-02</internalNodes>
          <leafValues>
            4.5736992359161377e-01 -6.3342672586441040e-01</leafValues></_>
        <_>
          <internalNodes>
            0 -1 59 -4.7473539598286152e-03</internalNodes>
          <leafValues>
            -9.8141062259674072e-01 2.8442132472991943e-01</leafValues></_>
        <_>
          <internalNodes>
            0 -1 31 3.1880103051662445e-04</internalNodes>
          <leafValues>
            1.8009309470653534e-01 -9.5405489206314087e-01</leafValues></_>
        <_>
          <internalNodes>
            0 -1 44 -1.9499726593494415e-02</internalNodes>
          <leafValues>
            -9.8266619443893433e-01 1.6573044657707214e-01</leafValues></_></weakClassifiers></_>
    <!-- stage 11 -->
    <_>
      <maxWeakCount>2</maxWeakCount>
      <stageThreshold>-5.2738577127456665e-01</stageThreshold>
      <weakClassifiers>
        <_>
          <internalNodes>
            0 -1 49 2.9857188463211060e-02</internalNodes>
          <leafValues>
            -7.5822222232818604e-01 7.0666664838790894e-01</leafValues></_>
        <_>
          <internalNodes>
            0 -1 29 -4.4884636998176575e-02</internalNodes>
          <leafValues>
            2.3083645105361938e-01 -8.7815141677856445e-01</leafValues></_></weakClassifiers></_>
    <!-- stage 12 -->
    <_>
      <maxWeakCount>3</maxWeakCount>
      <stageThreshold>-1.2667144536972046e+00</stageThreshold>
      <weakClassifiers>
        <_>
          <internalNodes>
            0 -1 21 5.6875117123126984e-02</internalNodes>
          <leafValues>
            -7.7560108900070190e-01 9.2207789421081543e-01</leafValues></_>
        <_>
          <internalNodes>
            0 -1 24 -3.4965600818395615e-02</internalNodes>
          <leafValues>
            -8.9106678962707520e-01 3.3263915777206421e-01</leafValues></_>
        <_>
          <internalNodes>
            0 -1 25 2.4645015946589410e-04</internalNodes>
          <leafValues>
            -7.3628330230712891e-01 3.9995342493057251e-01</leafValues></_></weakClassifiers></_>
    <!-- stage 13 -->
    <_>
      <maxWeakCount>6</maxWeakCount>
      <stageThreshold>-1.5579988956451416e+00</stageThreshold>
      <weakClassifiers>
        <_>
          <internalNodes>
            0 -1 1 5.7025559246540070e-02</internalNodes>
          <leafValues>
            -7.7637511491775513e-01 6.7032968997955322e-01</leafValues></_>
        <_>
          <internalNodes>
            0 -1 48 -7.4381515383720398e-02</internalNodes>
          <leafValues>
            4.0224793553352356e-01 -6.0081744194030762e-01</leafValues></_>
        <_>
          <internalNodes>
            0 -1 55 2.5842641480267048e-04</internalNodes>
          <leafValues>
            -8.3955246210098267e-01 2.8035393357276917e-01</leafValues></_>
        <_>
          <internalNodes>
            0 -1 31 3.2005243701860309e-04</internalNodes>
          <leafValues>
            1.8604458868503571e-01 -9.8210924863815308e-01</leafValues></_>
        <_>
          <internalNodes>
            0 -1 16 8.0473755951970816e-04</internalNodes>
          <leafValues>
            -6.8251425027847290e-01 2.9415950179100037e-01</leafValues></_>
        <_>
          <internalNodes>
            0 -1 65 6.9749420508742332e-03</internalNodes>
          <leafValues>
            2.0039790868759155e-01 -1.</leafValues></_></weakClassifiers></_>
    <!-- stage 14 -->
    <_>
      <maxWeakCount>4</maxWeakCount>
      <stageThreshold>-1.4397356510162354e+00</stageThreshold>
      <weakClassifiers>
        <_>
          <internalNodes>
            0 -1 11 3.9950288832187653e-02</internalNodes>
          <leafValues>
            -7.6827096939086914e-01 7.9487180709838867e-01</leafValues></_>
        <_>
          <internalNodes>
            0 -1 67 3.5079452209174633e-03</internalNodes>
          <leafValues>
            -7.0719486474990845e-01 4.1556468605995178e-01</leafValues></_>
        <_>
          <internalNodes>
            0 -1 68 2.4160515749827027e-04</internalNodes>
          <leafValues>
            -7.1262347698211670e-01 3.6597624421119690e-01</leafValues></_>
        <_>
          <internalNodes>
            0 -1 5 7.1906195953488350e-03</internalNodes>
          <leafValues>
            2.4422208964824677e-01 -8.1478911638259888e-01</leafValues></_></weakClassifiers></_>
    <!-- stage 15 -->
    <_>
      <maxWeakCount>5</maxWeakCount>
      <stageThreshold>-1.7933156490325928e+00</stageThreshold>
      <weakClassifiers>
        <_>
          <internalNodes>
            0 -1 8 1.0295002162456512e-01</internalNodes>
          <leafValues>
            -7.5219684839248657e-01 9.0322577953338623e-01</leafValues></_>
        <_>
          <internalNodes>
            0 -1 33 1.7369348555803299e-02</internalNodes>
          <leafValues>
            -6.1146074533462524e-01 5.1560610532760620e-01</leafValues></_>
        <_>
          <internalNodes>
            0 -1 37 2.0093534840270877e-04</internalNodes>
          <leafValues>
            3.0296668410301208e-01 -8.6012017726898193e-01</leafValues></_>
        <_>
          <internalNodes>
            0 -1 2 -1.5432244539260864e-01</internalNodes>
          <leafValues>
            -9.0300852060317993e-01 1.6241818666458130e-01</leafValues></_>
        <_>
          <internalNodes>
            0 -1 10 3.8564115762710571e-02</internalNodes>
          <leafValues>
            1.7038376629352570e-01 -9.8374933004379272e-01</leafValues></_></weakClassifiers></_>
    <!-- stage 16 -->
    <_>
      <maxWeakCount>5</maxWeakCount>
      <stageThreshold>-1.6107145547866821e+00</stageThreshold>
      <weakClassifiers>
        <_>
          <internalNodes>
            0 -1 3 -2.0570389926433563e-02</internalNodes>
          <leafValues>
            6.5217393636703491e-01 -7.7617329359054565e-01</leafValues></_>
        <_>
          <internalNodes>
            0 -1 12 -5.8661885559558868e-03</internalNodes>
          <leafValues>
            6.8455356359481812e-01 -5.4953771829605103e-01</leafValues></_>
        <_>
          <internalNodes>
            0 -1 23 -1.0066445916891098e-02</internalNodes>
          <leafValues>
            -8.3216929435729980e-01 2.5800207257270813e-01</leafValues></_>
        <_>
          <internalNodes>
            0 -1 14 -9.4647891819477081e-02</internalNodes>
          <leafValues>
            -1. 1.7772898077964783e-01</leafValues></_>
        <_>
          <internalNodes>
            0 -1 6 -1.1603280901908875e-02</internalNodes>
          <leafValues>
            3.6943686008453369e-01 -5.9552997350692749e-01</leafValues></_></weakClassifiers></_></stages>
  <features>
    <_>
      <rects>
        <_>
          0 0 3 12 -1.</_>
        <_>
          1 0 1 12 3.</_></rects>
      <tilted>0</tilted></_>
    <_>
      <rects>
        <_>
          0 0 3 17 -1.</_>
        <_>
          1 0 1 17 3.</_></rects>
      <tilted>0</tilted></_>
    <_>
      <rects>
        <_>
          0 0 12 20 -1.</_>
        <_>
          6 0 6 20 2.</_></rects>
      <tilted>0</tilted></_>
    <_>
      <rects>
        <_>
          0 1 1 8 -1.</_>
        <_>
          0 5 1 4 2.</_></rects>
      <tilted>0</tilted></_>
    <_>
      <rects>
        <_>
          0 1 3 15 -1.</_>
        <_>
          1 1 1 15 3.</_></rects>
      <tilted>0</tilted></_>
    <_>
      <rects>
        <_>
          0 1 9 4 -1.</_>
        <_>
          3 1 3 4 3.</_></rects>
      <tilted>0</tilted></_>
    <_>
      <rects>
        <_>
          0 1 10 2 -1.</_>
        <_>
          5 1 5 2 2.</_></rects>
      <tilted>0</tilted></_>
    <_>
      <rects>
        <_>
          0 1 12 7 -1.</_>
        <_>
          6 1 6 7 2.</_></rects>
      <tilted>0</tilted></_>
    <_>
      <rects>
        <_>
          0 1 14 6 -1.</_>
        <_>
          0 1 7 3 2.</_>
        <_>
          7 4 7 3 2.</_></rects>
      <tilted>0</tilted></_>
    <_>
      <rects>
        <_>
          0 2 12 16 -1.</_>
        <_>
          0 10 12 8 2.</_></rects>
      <tilted>0</tilted></_>
    <_>
      <rects>
        <_>
          0 4 14 8 -1.</_>
        <_>
          0 4 7 4 2.</_>
        <_>
          7 8 7 4 2.</_></rects>
      <tilted>0</tilted></_>
    <_>
      <rects>
        <_>
          0 5 16 4 -1.</_>
        <_>
          8 5 8 4 2.</_></rects>
      <tilted>0</tilted></_>
    <_>
      <rects>
        <_>
          0 7 3 3 -1.</_>
        <_>
          1 7 1 3 3.</_></rects>
      <tilted>0</tilted></_>
    <_>
      <rects>
        <_>
          0 8 3 8 -1.</_>
        <_>
          0 12 3 4 2.</_></rects>
      <tilted>0</tilted></_>
    <_>
      <rects>
        <_>
          0 8 12 10 -1.</_>
        <_>
          6 8 6 10 2.</_></rects>
      <tilted>0</tilted></_>
    <_>
      <rects>
        <_>
          0 9 14 4 -1.</_>
        <_>
          0 9 7 2 2.</_>
        <_>
          7 11 7 2 2.</_></rects>
      <tilted>0</tilted></_>
    <_>
      <rects>
        <_>
          0 18 8 1 -1.</_>
        <_>
          4 18 4 1 2.</_></rects>
      <tilted>0</tilted></_>
    <_>
      <rects>
        <_>
          1 1 2 18 -1.</_>
        <_>
          1 10 2 9 2.</_></rects>
      <tilted>0</tilted></_>
    <_>
      <rects>
        <_>
          1 1 16 16 -1.</_>
        <_>
          1 1 8 8 2.</_>
        <_>
          9 9 8 8 2.</_></rects>
      <tilted>0</tilted></_>
    <_>
      <rects>
        <_>
          1 1 18 13 -1.</_>
        <_>
          10 1 9 13 2.</_></rects>
      <tilted>0</tilted></_>
    <_>
      <rects>
        <_>
          1 1 18 6 -1.</_>
        <_>
          1 3 18 2 3.</_></rects>
      <tilted>0</tilted></_>
    <_>
      <rects>
        <_>
          1 4 14 8 -1.</_>
        <_>
          8 4 7 8 2.</_></rects>
      <tilted>0</tilted></_>
    <_>
      <rects>
        <_>
          1 9 6 10 -1.</_>
        <_>
          1 9 3 5 2.</_>
        <_>
          4 14 3 5 2.</_></rects>
      <tilted>0</tilted></_>
    <_>
      <rects>
        <_>
          1 13 6 6 -1.</_>
        <_>
          1 15 6 2 3.</_></rects>
      <tilted>0</tilted></_>
    <_>
      <rects>
        <_>
          2 1 12 4 -1.</_>
        <_>
          8 1 6 4 2.</_></rects>
      <tilted>0</tilted></_>
    <_>
      <rects>
        <_>
          2 5 1 4 -1.</_>
        <_>
          2 7 1 2 2.</_></rects>
      <tilted>0</tilted></_>
    <_>
      <rects>
        <_>
          3 0 15 1 -1.</_>
        <_>
          8 0 5 1 3.</_></rects>
      <tilted>0</tilted></_>
    <_>
      <rects>
        <_>
          3 2 14 15 -1.</_>
        <_>
          3 7 14 5 3.</_></rects>
      <tilted>0</tilted></_>
    <_>
      <rects>
        <_>
          3 10 2 1 -1.</_>
        <_>
          4 10 1 1 2.</_></rects>
      <tilted>0</tilted></_>
    <_>
      <rects>
        <_>
          4 1 10 8 -1.</_>
        <_>
          9 1 5 8 2.</_></rects>
      <tilted>0</tilted></_>
    <_>
      <rects>
        <_>
          5 2 3 6 -1.</_>
        <_>
          5 4 3 2 3.</_></rects>
      <tilted>0</tilted></_>
    <_>
      <rects>
        <_>
          5 3 3 1 -1.</_>
        <_>
          6 3 1 1 3.</_></rects>
      <tilted>0</tilted></_>
    <_>
      <rects>
        <_>
          5 11 4 3 -1.</_>
        <_>
          5 12 4 1 3.</_></rects>
      <tilted>0</tilted></_>
    <_>
      <rects>
        <_>
          5 13 12 2 -1.</_>
        <_>
          11 13 6 2 2.</_></rects>
      <tilted>0</tilted></_>
    <_>
      <rects>
        <_>
          5 13 12 7 -1.</_>
        <_>
          11 13 6 7 2.</_></rects>
      <tilted>0</tilted></_>
    <_>
      <rects>
        <_>
          5 17 8 2 -1.</_>
        <_>
          9 17 4 2 2.</_></rects>
      <tilted>0</tilted></_>
    <_>
      <rects>
        <_>
          6 1 3 6 -1.</_>
        <_>
          6 3 3 2 3.</_></rects>
      <tilted>0</tilted></_>
    <_>
      <rects>
        <_>
          6 3 2 1 -1.</_>
        <_>
          7 3 1 1 2.</_></rects>
      <tilted>0</tilted></_>
    <_>
      <rects>
        <_>
          6 5 1 2 -1.</_>
        <_>
          6 6 1 1 2.</_></rects>
      <tilted>0</tilted></_>
    <_>
      <rects>
        <_>
          7 5 8 3 -1.</_>
        <_>
          7 6 8 1 3.</_></rects>
      <tilted>0</tilted></_>
    <_>
      <rects>
        <_>
          7 6 4 2 -1.</_>
        <_>
          7 6 2 1 2.</_>
        <_>
          9 7 2 1 2.</_></rects>
      <tilted>0</tilted></_>
    <_>
      <rects>
        <_>
          7 14 2 2 -1.</_>
        <_>
          7 14 1 1 2.</_>
        <_>
          8 15 1 1 2.</_></rects>
      <tilted>0</tilted></_>
    <_>
      <rects>
        <_>
          8 12 10 3 -1.</_>
        <_>
          13 12 5 3 2.</_></rects>
      <tilted>0</tilted></_>
    <_>
      <rects>
        <_>
          8 18 3 1 -1.</_>
        <_>
          9 18 1 1 3.</_></rects>
      <tilted>0</tilted></_>
    <_>
      <rects>
        <_>
          9 0 1 12 -1.</_>
        <_>
          9 6 1 6 2.</_></rects>
      <tilted>0</tilted></_>
    <_>
      <rects>
        <_>
          9 0 5 6 -1.</_>
        <_>
          9 3 5 3 2.</_></rects>
      <tilted>0</tilted></_>
    <_>
      <rects>
        <_>
          9 3 3 6 -1.</_>
        <_>
          9 6 3 3 2.</_></rects>
      <tilted>0</tilted></_>
    <_>
      <rects>
        <_>
          11 1 2 6 -1.</_>
        <_>
          11 3 2 2 3.</_></rects>
      <tilted>0</tilted></_>
    <_>
      <rects>
        <_>
          11 4 7 16 -1.</_>
        <_>
          11 12 7 8 2.</_></rects>
      <tilted>0</tilted></_>
    <_>
      <rects>
        <_>
          11 8 4 4 -1.</_>
        <_>
          13 8 2 4 2.</_></rects>
      <tilted>0</tilted></_>
    <_>
      <rects>
        <_>
          11 12 3 1 -1.</_>
        <_>
          12 12 1 1 3.</_></rects>
      <tilted>0</tilted></_>
    <_>
      <rects>
        <_>
          12 3 4 1 -1.</_>
        <_>
          14 3 2 1 2.</_></rects>
      <tilted>0</tilted></_>
    <_>
      <rects>
        <_>
          12 9 2 2 -1.</_>
        <_>
          12 9 1 1 2.</_>
        <_>
          13 10 1 1 2.</_></rects>
      <tilted>0</tilted></_>
    <_>
      <rects>
        <_>
          12 10 3 4 -1.</_>
        <_>
          13 10 1 4 3.</_></rects>
      <tilted>0</tilted></_>
    <_>
      <rects>
        <_>
          12 10 3 6 -1.</_>
        <_>
          13 10 1 6 3.</_></rects>
      <tilted>0</tilted></_>
    <_>
      <rects>
        <_>
          12 13 3 2 -1.</_>
        <_>
          13 13 1 2 3.</_></rects>
      <tilted>0</tilted></_>
    <_>
      <rects>
        <_>
          12 18 1 2 -1.</_>
        <_>
          12 19 1 1 2.</_></rects>
      <tilted>0</tilted></_>
    <_>
      <rects>
        <_>
          13 3 2 1 -1.</_>
        <_>
          14 3 1 1 2.</_></rects>
      <tilted>0</tilted></_>
    <_>
      <rects>
        <_>
          13 6 3 2 -1.</_>
        <_>
          13 7 3 1 2.</_></rects>
      <tilted>0</tilted></_>
    <_>
      <rects>
        <_>
          14 1 6 1 -1.</_>
        <_>
          17 1 3 1 2.</_></rects>
      <tilted>0</tilted></_>
    <_>
      <rects>
        <_>
          14 16 1 2 -1.</_>
        <_>
          14 17 1 1 2.</_></rects>
      <tilted>0</tilted></_>
    <_>
      <rects>
        <_>
          15 0 5 2 -1.</_>
        <_>
          15 1 5 1 2.</_></rects>
      <tilted>0</tilted></_>
    <_>
      <rects>
        <_>
          15 3 1 6 -1.</_>
        <_>
          15 6 1 3 2.</_></rects>
      <tilted>0</tilted></_>
    <_>
      <rects>
        <_>
          16 0 1 2 -1.</_>
        <_>
          16 1 1 1 2.</_></rects>
      <tilted>0</tilted></_>
    <_>
      <rects>
        <_>
          16 14 2 6 -1.</_>
        <_>
          16 14 1 3 2.</_>
        <_>
          17 17 1 3 2.</_></rects>
      <tilted>0</tilted></_>
    <_>
      <rects>
        <_>
          17 0 3 13 -1.</_>
        <_>
          18 0 1 13 3.</_></rects>
      <tilted>0</tilted></_>
    <_>
      <rects>
        <_>
          17 2 1 2 -1.</_>
        <_>
          17 3 1 1 2.</_></rects>
      <tilted>0</tilted></_>
    <_>
      <rects>
        <_>
          17 14 2 3 -1.</_>
        <_>
          17 15 2 1 3.</_></rects>
      <tilted>0</tilted></_>
    <_>
      <rects>
        <_>
          18 2 1 2 -1.</_>
        <_>
          18 3 1 1 2.</_></rects>
      <tilted>0</tilted></_></features></cascade>
</opencv_storage>
