<?xml version="1.0"?>
<opencv_storage>
<cascade>
  <stageType>BOOST</stageType>
  <featureType>HAAR</featureType>
  <height>37</height>
  <width>20</width>
  <stageParams>
    <boostType>GAB</boostType>
    <minHitRate>9.9500000476837158e-01</minHitRate>
    <maxFalseAlarm>5.0000000000000000e-01</maxFalseAlarm>
    <weightTrimRate>9.4999998807907104e-01</weightTrimRate>
    <maxDepth>1</maxDepth>
    <maxWeakCount>100</maxWeakCount></stageParams>
  <featureParams>
    <maxCatCount>0</maxCatCount>
    <featSize>1</featSize>
    <mode>BASIC</mode></featureParams>
  <stageNum>13</stageNum>
  <stages>
    <!-- stage 0 -->
    <_>
      <maxWeakCount>3</maxWeakCount>
      <stageThreshold>-9.8051387071609497e-01</stageThreshold>
      <weakClassifiers>
        <_>
          <internalNodes>
            0 -1 50 5.3115999326109886e-03</internalNodes>
          <leafValues>
            -9.0297031402587891e-01 5.8947366476058960e-01</leafValues></_>
        <_>
          <internalNodes>
            0 -1 18 6.1093565076589584e-02</internalNodes>
          <leafValues>
            -7.3090136051177979e-01 7.8695058822631836e-01</leafValues></_>
        <_>
          <internalNodes>
            0 -1 46 3.0776858329772949e-03</internalNodes>
          <leafValues>
            -8.3908617496490479e-01 7.2890007495880127e-01</leafValues></_></weakClassifiers></_>
    <!-- stage 1 -->
    <_>
      <maxWeakCount>5</maxWeakCount>
      <stageThreshold>-1.3492410182952881e+00</stageThreshold>
      <weakClassifiers>
        <_>
          <internalNodes>
            0 -1 7 7.7966907992959023e-03</internalNodes>
          <leafValues>
            -8.5783839225769043e-01 4.6820810437202454e-01</leafValues></_>
        <_>
          <internalNodes>
            0 -1 22 -3.3642045309534296e-05</internalNodes>
          <leafValues>
            2.9328536987304688e-01 -8.8579219579696655e-01</leafValues></_>
        <_>
          <internalNodes>
            0 -1 30 8.2485824823379517e-03</internalNodes>
          <leafValues>
            -5.6994873285293579e-01 7.7912139892578125e-01</leafValues></_>
        <_>
          <internalNodes>
            0 -1 51 -1.7694706912152469e-05</internalNodes>
          <leafValues>
            4.9165964126586914e-01 -8.4673875570297241e-01</leafValues></_>
        <_>
          <internalNodes>
            0 -1 53 3.8483240641653538e-03</internalNodes>
          <leafValues>
            -6.5630292892456055e-01 6.3199949264526367e-01</leafValues></_></weakClassifiers></_>
    <!-- stage 2 -->
    <_>
      <maxWeakCount>3</maxWeakCount>
      <stageThreshold>-1.0726716518402100e+00</stageThreshold>
      <weakClassifiers>
        <_>
          <internalNodes>
            0 -1 42 3.4130359999835491e-03</internalNodes>
          <leafValues>
            -8.3758264780044556e-01 6.1702126264572144e-01</leafValues></_>
        <_>
          <internalNodes>
            0 -1 32 1.0965192923322320e-03</internalNodes>
          <leafValues>
            -7.4154955148696899e-01 3.9808893203735352e-01</leafValues></_>
        <_>
          <internalNodes>
            0 -1 33 -1.6294468194246292e-02</internalNodes>
          <leafValues>
            5.7726174592971802e-01 -6.3317793607711792e-01</leafValues></_></weakClassifiers></_>
    <!-- stage 3 -->
    <_>
      <maxWeakCount>3</maxWeakCount>
      <stageThreshold>-1.0964028835296631e+00</stageThreshold>
      <weakClassifiers>
        <_>
          <internalNodes>
            0 -1 49 -6.4277518540620804e-03</internalNodes>
          <leafValues>
            7.9310345649719238e-01 -7.8077268600463867e-01</leafValues></_>
        <_>
          <internalNodes>
            0 -1 14 -9.6846722066402435e-02</internalNodes>
          <leafValues>
            3.8636425137519836e-01 -9.4126218557357788e-01</leafValues></_>
        <_>
          <internalNodes>
            0 -1 13 5.8879517018795013e-03</internalNodes>
          <leafValues>
            -6.3540208339691162e-01 6.2563204765319824e-01</leafValues></_></weakClassifiers></_>
    <!-- stage 4 -->
    <_>
      <maxWeakCount>5</maxWeakCount>
      <stageThreshold>-1.4938614368438721e+00</stageThreshold>
      <weakClassifiers>
        <_>
          <internalNodes>
            0 -1 34 -1.3649446889758110e-02</internalNodes>
          <leafValues>
            7.9069769382476807e-01 -7.7917414903640747e-01</leafValues></_>
        <_>
          <internalNodes>
            0 -1 20 -3.7230812013149261e-02</internalNodes>
          <leafValues>
            6.9331711530685425e-01 -6.9052886962890625e-01</leafValues></_>
        <_>
          <internalNodes>
            0 -1 31 6.7838688846677542e-04</internalNodes>
          <leafValues>
            4.1325584053993225e-01 -8.9539688825607300e-01</leafValues></_>
        <_>
          <internalNodes>
            0 -1 21 3.3166059292852879e-03</internalNodes>
          <leafValues>
            -6.5386158227920532e-01 4.5736098289489746e-01</leafValues></_>
        <_>
          <internalNodes>
            0 -1 4 -4.8818469047546387e-02</internalNodes>
          <leafValues>
            4.1387742757797241e-01 -7.6939237117767334e-01</leafValues></_></weakClassifiers></_>
    <!-- stage 5 -->
    <_>
      <maxWeakCount>5</maxWeakCount>
      <stageThreshold>-9.2331647872924805e-01</stageThreshold>
      <weakClassifiers>
        <_>
          <internalNodes>
            0 -1 2 5.2782215178012848e-02</internalNodes>
          <leafValues>
            -7.7876895666122437e-01 9.2405062913894653e-01</leafValues></_>
        <_>
          <internalNodes>
            0 -1 36 -3.1262196600437164e-02</internalNodes>
          <leafValues>
            8.3368766307830811e-01 -5.9839504957199097e-01</leafValues></_>
        <_>
          <internalNodes>
            0 -1 26 -5.4569415748119354e-02</internalNodes>
          <leafValues>
            7.7129840850830078e-01 -4.3919903039932251e-01</leafValues></_>
        <_>
          <internalNodes>
            0 -1 27 -2.4925565347075462e-02</internalNodes>
          <leafValues>
            -1. 3.5315462946891785e-01</leafValues></_>
        <_>
          <internalNodes>
            0 -1 47 -2.6006136089563370e-02</internalNodes>
          <leafValues>
            5.3989189863204956e-01 -5.1555860042572021e-01</leafValues></_></weakClassifiers></_>
    <!-- stage 6 -->
    <_>
      <maxWeakCount>3</maxWeakCount>
      <stageThreshold>-1.1347545385360718e+00</stageThreshold>
      <weakClassifiers>
        <_>
          <internalNodes>
            0 -1 35 -1.0439406335353851e-01</internalNodes>
          <leafValues>
            2.5225225090980530e-01 -8.7525564432144165e-01</leafValues></_>
        <_>
          <internalNodes>
            0 -1 41 1.9983813166618347e-02</internalNodes>
          <leafValues>
            -6.7887943983078003e-01 5.8380317687988281e-01</leafValues></_>
        <_>
          <internalNodes>
            0 -1 3 -1.0913058370351791e-01</internalNodes>
          <leafValues>
            4.1938051581382751e-01 -6.3309580087661743e-01</leafValues></_></weakClassifiers></_>
    <!-- stage 7 -->
    <_>
      <maxWeakCount>5</maxWeakCount>
      <stageThreshold>-1.5266386270523071e+00</stageThreshold>
      <weakClassifiers>
        <_>
          <internalNodes>
            0 -1 29 1.0810991749167442e-02</internalNodes>
          <leafValues>
            -7.8358882665634155e-01 7.5824177265167236e-01</leafValues></_>
        <_>
          <internalNodes>
            0 -1 8 -5.3954530507326126e-02</internalNodes>
          <leafValues>
            4.4075575470924377e-01 -6.8641668558120728e-01</leafValues></_>
        <_>
          <internalNodes>
            0 -1 24 1.0187210282310843e-03</internalNodes>
          <leafValues>
            -7.1445465087890625e-01 4.7001829743385315e-01</leafValues></_>
        <_>
          <internalNodes>
            0 -1 43 -4.8095182864926755e-04</internalNodes>
          <leafValues>
            3.7390574812889099e-01 -7.4158209562301636e-01</leafValues></_>
        <_>
          <internalNodes>
            0 -1 45 2.8439643792808056e-03</internalNodes>
          <leafValues>
            -8.4325665235519409e-01 3.4797596931457520e-01</leafValues></_></weakClassifiers></_>
    <!-- stage 8 -->
    <_>
      <maxWeakCount>5</maxWeakCount>
      <stageThreshold>-1.4162166118621826e+00</stageThreshold>
      <weakClassifiers>
        <_>
          <internalNodes>
            0 -1 1 4.0642037987709045e-02</internalNodes>
          <leafValues>
            -7.7757847309112549e-01 7.8823530673980713e-01</leafValues></_>
        <_>
          <internalNodes>
            0 -1 52 -5.1523889414966106e-03</internalNodes>
          <leafValues>
            3.5618567466735840e-01 -7.4535858631134033e-01</leafValues></_>
        <_>
          <internalNodes>
            0 -1 12 2.6409227866679430e-03</internalNodes>
          <leafValues>
            3.3385407924652100e-01 -8.2072174549102783e-01</leafValues></_>
        <_>
          <internalNodes>
            0 -1 25 -6.7391851916909218e-04</internalNodes>
          <leafValues>
            3.7194243073463440e-01 -6.9829273223876953e-01</leafValues></_>
        <_>
          <internalNodes>
            0 -1 19 1.9355081021785736e-02</internalNodes>
          <leafValues>
            -5.0800132751464844e-01 5.5549979209899902e-01</leafValues></_></weakClassifiers></_>
    <!-- stage 9 -->
    <_>
      <maxWeakCount>4</maxWeakCount>
      <stageThreshold>-1.0188522338867188e+00</stageThreshold>
      <weakClassifiers>
        <_>
          <internalNodes>
            0 -1 16 -1.0878529399633408e-02</internalNodes>
          <leafValues>
            6.7032968997955322e-01 -7.7637511491775513e-01</leafValues></_>
        <_>
          <internalNodes>
            0 -1 5 -4.4592726044356823e-03</internalNodes>
          <leafValues>
            5.6563109159469604e-01 -6.0032773017883301e-01</leafValues></_>
        <_>
          <internalNodes>
            0 -1 28 5.3553184261545539e-04</internalNodes>
          <leafValues>
            2.5242227315902710e-01 -9.8356425762176514e-01</leafValues></_>
        <_>
          <internalNodes>
            0 -1 44 1.0602391557767987e-03</internalNodes>
          <leafValues>
            1.7545604705810547e-01 -1.</leafValues></_></weakClassifiers></_>
    <!-- stage 10 -->
    <_>
      <maxWeakCount>5</maxWeakCount>
      <stageThreshold>-1.5439094305038452e+00</stageThreshold>
      <weakClassifiers>
        <_>
          <internalNodes>
            0 -1 10 2.0604651421308517e-02</internalNodes>
          <leafValues>
            -7.7837353944778442e-01 8.7654322385787964e-01</leafValues></_>
        <_>
          <internalNodes>
            0 -1 17 1.5893490053713322e-03</internalNodes>
          <leafValues>
            -7.7713215351104736e-01 3.0159598588943481e-01</leafValues></_>
        <_>
          <internalNodes>
            0 -1 11 -2.4379901587963104e-02</internalNodes>
          <leafValues>
            -9.4601100683212280e-01 2.8771701455116272e-01</leafValues></_>
        <_>
          <internalNodes>
            0 -1 9 7.4067374225705862e-04</internalNodes>
          <leafValues>
            -4.9109011888504028e-01 4.7989836335182190e-01</leafValues></_>
        <_>
          <internalNodes>
            0 -1 37 -3.5749498056247830e-04</internalNodes>
          <leafValues>
            3.6996930837631226e-01 -6.7449206113815308e-01</leafValues></_></weakClassifiers></_>
    <!-- stage 11 -->
    <_>
      <maxWeakCount>3</maxWeakCount>
      <stageThreshold>-9.9572110176086426e-01</stageThreshold>
      <weakClassifiers>
        <_>
          <internalNodes>
            0 -1 39 9.1444328427314758e-03</internalNodes>
          <leafValues>
            -7.7060931921005249e-01 7.1428573131561279e-01</leafValues></_>
        <_>
          <internalNodes>
            0 -1 48 1.3202428817749023e-03</internalNodes>
          <leafValues>
            -5.0092697143554688e-01 6.0571098327636719e-01</leafValues></_>
        <_>
          <internalNodes>
            0 -1 28 -4.1411950951442122e-04</internalNodes>
          <leafValues>
            -8.3082276582717896e-01 3.4646943211555481e-01</leafValues></_></weakClassifiers></_>
    <!-- stage 12 -->
    <_>
      <maxWeakCount>6</maxWeakCount>
      <stageThreshold>-1.5969998836517334e+00</stageThreshold>
      <weakClassifiers>
        <_>
          <internalNodes>
            0 -1 40 4.2240798473358154e-02</internalNodes>
          <leafValues>
            -7.5352114439010620e-01 8.7500000000000000e-01</leafValues></_>
        <_>
          <internalNodes>
            0 -1 0 -6.8032531999051571e-03</internalNodes>
          <leafValues>
            7.0744168758392334e-01 -5.3126806020736694e-01</leafValues></_>
        <_>
          <internalNodes>
            0 -1 6 2.7125137858092785e-03</internalNodes>
          <leafValues>
            -4.7781237959861755e-01 5.7655066251754761e-01</leafValues></_>
        <_>
          <internalNodes>
            0 -1 23 1.7326001077890396e-02</internalNodes>
          <leafValues>
            2.5982809066772461e-01 -9.4427448511123657e-01</leafValues></_>
        <_>
          <internalNodes>
            0 -1 38 -1.1732529383152723e-03</internalNodes>
          <leafValues>
            3.7341919541358948e-01 -6.3089799880981445e-01</leafValues></_>
        <_>
          <internalNodes>
            0 -1 15 -1.9416731595993042e-01</internalNodes>
          <leafValues>
            5.3667151927947998e-01 -4.8635753989219666e-01</leafValues></_></weakClassifiers></_></stages>
  <features>
    <_>
      <rects>
        <_>
          0 0 2 10 -1.</_>
        <_>
          1 0 1 10 2.</_></rects>
      <tilted>0</tilted></_>
    <_>
      <rects>
        <_>
          0 0 3 22 -1.</_>
        <_>
          1 0 1 22 3.</_></rects>
      <tilted>0</tilted></_>
    <_>
      <rects>
        <_>
          0 1 3 30 -1.</_>
        <_>
          1 1 1 30 3.</_></rects>
      <tilted>0</tilted></_>
    <_>
      <rects>
        <_>
          0 1 14 36 -1.</_>
        <_>
          7 1 7 36 2.</_></rects>
      <tilted>0</tilted></_>
    <_>
      <rects>
        <_>
          0 1 20 7 -1.</_>
        <_>
          10 1 10 7 2.</_></rects>
      <tilted>0</tilted></_>
    <_>
      <rects>
        <_>
          0 2 4 3 -1.</_>
        <_>
          2 2 2 3 2.</_></rects>
      <tilted>0</tilted></_>
    <_>
      <rects>
        <_>
          0 5 2 8 -1.</_>
        <_>
          1 5 1 8 2.</_></rects>
      <tilted>0</tilted></_>
    <_>
      <rects>
        <_>
          0 6 3 10 -1.</_>
        <_>
          1 6 1 10 3.</_></rects>
      <tilted>0</tilted></_>
    <_>
      <rects>
        <_>
          0 15 4 16 -1.</_>
        <_>
          0 23 4 8 2.</_></rects>
      <tilted>0</tilted></_>
    <_>
      <rects>
        <_>
          0 16 2 6 -1.</_>
        <_>
          0 16 1 3 2.</_>
        <_>
          1 19 1 3 2.</_></rects>
      <tilted>0</tilted></_>
    <_>
      <rects>
        <_>
          0 20 3 10 -1.</_>
        <_>
          1 20 1 10 3.</_></rects>
      <tilted>0</tilted></_>
    <_>
      <rects>
        <_>
          0 20 8 11 -1.</_>
        <_>
          4 20 4 11 2.</_></rects>
      <tilted>0</tilted></_>
    <_>
      <rects>
        <_>
          0 30 11 6 -1.</_>
        <_>
          0 33 11 3 2.</_></rects>
      <tilted>0</tilted></_>
    <_>
      <rects>
        <_>
          0 33 8 4 -1.</_>
        <_>
          4 33 4 4 2.</_></rects>
      <tilted>0</tilted></_>
    <_>
      <rects>
        <_>
          1 3 16 11 -1.</_>
        <_>
          9 3 8 11 2.</_></rects>
      <tilted>0</tilted></_>
    <_>
      <rects>
        <_>
          1 9 18 16 -1.</_>
        <_>
          10 9 9 16 2.</_></rects>
      <tilted>0</tilted></_>
    <_>
      <rects>
        <_>
          1 11 14 2 -1.</_>
        <_>
          1 11 7 1 2.</_>
        <_>
          8 12 7 1 2.</_></rects>
      <tilted>0</tilted></_>
    <_>
      <rects>
        <_>
          1 12 3 6 -1.</_>
        <_>
          2 12 1 6 3.</_></rects>
      <tilted>0</tilted></_>
    <_>
      <rects>
        <_>
          1 12 14 16 -1.</_>
        <_>
          1 12 7 8 2.</_>
        <_>
          8 20 7 8 2.</_></rects>
      <tilted>0</tilted></_>
    <_>
      <rects>
        <_>
          2 4 9 9 -1.</_>
        <_>
          2 7 9 3 3.</_></rects>
      <tilted>0</tilted></_>
    <_>
      <rects>
        <_>
          2 15 2 18 -1.</_>
        <_>
          2 24 2 9 2.</_></rects>
      <tilted>0</tilted></_>
    <_>
      <rects>
        <_>
          3 0 16 2 -1.</_>
        <_>
          3 1 16 1 2.</_></rects>
      <tilted>0</tilted></_>
    <_>
      <rects>
        <_>
          3 7 2 2 -1.</_>
        <_>
          3 7 1 1 2.</_>
        <_>
          4 8 1 1 2.</_></rects>
      <tilted>0</tilted></_>
    <_>
      <rects>
        <_>
          3 15 12 6 -1.</_>
        <_>
          7 15 4 6 3.</_></rects>
      <tilted>0</tilted></_>
    <_>
      <rects>
        <_>
          3 22 3 3 -1.</_>
        <_>
          3 23 3 1 3.</_></rects>
      <tilted>0</tilted></_>
    <_>
      <rects>
        <_>
          3 25 4 3 -1.</_>
        <_>
          5 25 2 3 2.</_></rects>
      <tilted>0</tilted></_>
    <_>
      <rects>
        <_>
          4 12 12 15 -1.</_>
        <_>
          4 17 12 5 3.</_></rects>
      <tilted>0</tilted></_>
    <_>
      <rects>
        <_>
          4 22 10 15 -1.</_>
        <_>
          9 22 5 15 2.</_></rects>
      <tilted>0</tilted></_>
    <_>
      <rects>
        <_>
          5 5 3 3 -1.</_>
        <_>
          6 5 1 3 3.</_></rects>
      <tilted>0</tilted></_>
    <_>
      <rects>
        <_>
          6 9 6 3 -1.</_>
        <_>
          9 9 3 3 2.</_></rects>
      <tilted>0</tilted></_>
    <_>
      <rects>
        <_>
          6 25 12 1 -1.</_>
        <_>
          10 25 4 1 3.</_></rects>
      <tilted>0</tilted></_>
    <_>
      <rects>
        <_>
          6 30 6 7 -1.</_>
        <_>
          9 30 3 7 2.</_></rects>
      <tilted>0</tilted></_>
    <_>
      <rects>
        <_>
          7 28 2 8 -1.</_>
        <_>
          7 28 1 4 2.</_>
        <_>
          8 32 1 4 2.</_></rects>
      <tilted>0</tilted></_>
    <_>
      <rects>
        <_>
          8 7 10 6 -1.</_>
        <_>
          8 10 10 3 2.</_></rects>
      <tilted>0</tilted></_>
    <_>
      <rects>
        <_>
          8 11 8 3 -1.</_>
        <_>
          8 12 8 1 3.</_></rects>
      <tilted>0</tilted></_>
    <_>
      <rects>
        <_>
          9 5 11 30 -1.</_>
        <_>
          9 20 11 15 2.</_></rects>
      <tilted>0</tilted></_>
    <_>
      <rects>
        <_>
          9 7 1 30 -1.</_>
        <_>
          9 22 1 15 2.</_></rects>
      <tilted>0</tilted></_>
    <_>
      <rects>
        <_>
          9 20 4 1 -1.</_>
        <_>
          11 20 2 1 2.</_></rects>
      <tilted>0</tilted></_>
    <_>
      <rects>
        <_>
          10 5 2 10 -1.</_>
        <_>
          10 5 1 5 2.</_>
        <_>
          11 10 1 5 2.</_></rects>
      <tilted>0</tilted></_>
    <_>
      <rects>
        <_>
          10 7 1 9 -1.</_>
        <_>
          10 10 1 3 3.</_></rects>
      <tilted>0</tilted></_>
    <_>
      <rects>
        <_>
          11 9 4 18 -1.</_>
        <_>
          11 9 2 9 2.</_>
        <_>
          13 18 2 9 2.</_></rects>
      <tilted>0</tilted></_>
    <_>
      <rects>
        <_>
          11 20 6 8 -1.</_>
        <_>
          13 20 2 8 3.</_></rects>
      <tilted>0</tilted></_>
    <_>
      <rects>
        <_>
          11 30 3 2 -1.</_>
        <_>
          12 30 1 2 3.</_></rects>
      <tilted>0</tilted></_>
    <_>
      <rects>
        <_>
          11 30 5 6 -1.</_>
        <_>
          11 32 5 2 3.</_></rects>
      <tilted>0</tilted></_>
    <_>
      <rects>
        <_>
          12 0 6 1 -1.</_>
        <_>
          15 0 3 1 2.</_></rects>
      <tilted>0</tilted></_>
    <_>
      <rects>
        <_>
          12 2 2 9 -1.</_>
        <_>
          12 5 2 3 3.</_></rects>
      <tilted>0</tilted></_>
    <_>
      <rects>
        <_>
          12 3 2 4 -1.</_>
        <_>
          12 5 2 2 2.</_></rects>
      <tilted>0</tilted></_>
    <_>
      <rects>
        <_>
          12 4 6 26 -1.</_>
        <_>
          14 4 2 26 3.</_></rects>
      <tilted>0</tilted></_>
    <_>
      <rects>
        <_>
          12 18 2 1 -1.</_>
        <_>
          13 18 1 1 2.</_></rects>
      <tilted>0</tilted></_>
    <_>
      <rects>
        <_>
          12 18 2 6 -1.</_>
        <_>
          12 18 1 3 2.</_>
        <_>
          13 21 1 3 2.</_></rects>
      <tilted>0</tilted></_>
    <_>
      <rects>
        <_>
          12 18 3 8 -1.</_>
        <_>
          13 18 1 8 3.</_></rects>
      <tilted>0</tilted></_>
    <_>
      <rects>
        <_>
          13 6 2 1 -1.</_>
        <_>
          14 6 1 1 2.</_></rects>
      <tilted>0</tilted></_>
    <_>
      <rects>
        <_>
          15 4 4 7 -1.</_>
        <_>
          17 4 2 7 2.</_></rects>
      <tilted>0</tilted></_>
    <_>
      <rects>
        <_>
          17 24 1 12 -1.</_>
        <_>
          17 28 1 4 3.</_></rects>
      <tilted>0</tilted></_></features></cascade>
</opencv_storage>
