<?xml version="1.0"?>
<opencv_storage>
<cascade>
  <stageType>BOOST</stageType>
  <featureType>HAAR</featureType>
  <height>27</height>
  <width>15</width>
  <stageParams>
    <boostType>GAB</boostType>
    <minHitRate>9.9500000476837158e-01</minHitRate>
    <maxFalseAlarm>5.0000000000000000e-01</maxFalseAlarm>
    <weightTrimRate>9.4999998807907104e-01</weightTrimRate>
    <maxDepth>1</maxDepth>
    <maxWeakCount>100</maxWeakCount></stageParams>
  <featureParams>
    <maxCatCount>0</maxCatCount>
    <featSize>1</featSize>
    <mode>BASIC</mode></featureParams>
  <stageNum>13</stageNum>
  <stages>
    <!-- stage 0 -->
    <_>
      <maxWeakCount>4</maxWeakCount>
      <stageThreshold>-1.7352762222290039e+00</stageThreshold>
      <weakClassifiers>
        <_>
          <internalNodes>
            0 -1 16 7.3159977793693542e-02</internalNodes>
          <leafValues>
            -8.4240150451660156e-01 7.3134326934814453e-01</leafValues></_>
        <_>
          <internalNodes>
            0 -1 44 9.9432365968823433e-03</internalNodes>
          <leafValues>
            -7.9101490974426270e-01 7.4253779649734497e-01</leafValues></_>
        <_>
          <internalNodes>
            0 -1 51 -7.6072900556027889e-03</internalNodes>
          <leafValues>
            7.3950552940368652e-01 -6.4958405494689941e-01</leafValues></_>
        <_>
          <internalNodes>
            0 -1 5 2.8930272907018661e-02</internalNodes>
          <leafValues>
            -7.2630292177200317e-01 5.4772430658340454e-01</leafValues></_></weakClassifiers></_>
    <!-- stage 1 -->
    <_>
      <maxWeakCount>3</maxWeakCount>
      <stageThreshold>-1.1945574283599854e+00</stageThreshold>
      <weakClassifiers>
        <_>
          <internalNodes>
            0 -1 4 2.5660756975412369e-02</internalNodes>
          <leafValues>
            -8.2193064689636230e-01 5.7894736528396606e-01</leafValues></_>
        <_>
          <internalNodes>
            0 -1 21 -6.7543260229285806e-05</internalNodes>
          <leafValues>
            3.2926374673843384e-01 -8.7648242712020874e-01</leafValues></_>
        <_>
          <internalNodes>
            0 -1 37 9.6655096858739853e-03</internalNodes>
          <leafValues>
            -7.0189058780670166e-01 5.8066821098327637e-01</leafValues></_></weakClassifiers></_>
    <!-- stage 2 -->
    <_>
      <maxWeakCount>5</maxWeakCount>
      <stageThreshold>-1.7375106811523438e+00</stageThreshold>
      <weakClassifiers>
        <_>
          <internalNodes>
            0 -1 48 1.1289101094007492e-02</internalNodes>
          <leafValues>
            -8.3867830038070679e-01 3.6842104792594910e-01</leafValues></_>
        <_>
          <internalNodes>
            0 -1 11 6.2316499650478363e-02</internalNodes>
          <leafValues>
            -9.1588157415390015e-01 2.4975137412548065e-01</leafValues></_>
        <_>
          <internalNodes>
            0 -1 36 -2.7468538974062540e-05</internalNodes>
          <leafValues>
            4.1285541653633118e-01 -8.1124109029769897e-01</leafValues></_>
        <_>
          <internalNodes>
            0 -1 38 -3.4484644857002422e-05</internalNodes>
          <leafValues>
            4.3760916590690613e-01 -7.5476044416427612e-01</leafValues></_>
        <_>
          <internalNodes>
            0 -1 9 1.9103720784187317e-02</internalNodes>
          <leafValues>
            -8.2570540904998779e-01 4.1741779446601868e-01</leafValues></_></weakClassifiers></_>
    <!-- stage 3 -->
    <_>
      <maxWeakCount>5</maxWeakCount>
      <stageThreshold>-8.4292322397232056e-01</stageThreshold>
      <weakClassifiers>
        <_>
          <internalNodes>
            0 -1 3 -1.7546411603689194e-02</internalNodes>
          <leafValues>
            5.1824820041656494e-01 -8.1937909126281738e-01</leafValues></_>
        <_>
          <internalNodes>
            0 -1 45 3.9895465597510338e-03</internalNodes>
          <leafValues>
            -6.0684776306152344e-01 7.5767415761947632e-01</leafValues></_>
        <_>
          <internalNodes>
            0 -1 39 1.6105672693811357e-04</internalNodes>
          <leafValues>
            -7.4136602878570557e-01 5.4409396648406982e-01</leafValues></_>
        <_>
          <internalNodes>
            0 -1 50 -2.1796804503537714e-04</internalNodes>
          <leafValues>
            4.4637498259544373e-01 -7.3573017120361328e-01</leafValues></_>
        <_>
          <internalNodes>
            0 -1 27 -1.1170770227909088e-01</internalNodes>
          <leafValues>
            9.0000492334365845e-01 -4.0716528892517090e-01</leafValues></_></weakClassifiers></_>
    <!-- stage 4 -->
    <_>
      <maxWeakCount>4</maxWeakCount>
      <stageThreshold>-1.8395732641220093e+00</stageThreshold>
      <weakClassifiers>
        <_>
          <internalNodes>
            0 -1 22 3.2772338017821312e-03</internalNodes>
          <leafValues>
            -8.2243901491165161e-01 2.4571429193019867e-01</leafValues></_>
        <_>
          <internalNodes>
            0 -1 53 -1.2838541297242045e-03</internalNodes>
          <leafValues>
            2.7702069282531738e-01 -7.8181809186935425e-01</leafValues></_>
        <_>
          <internalNodes>
            0 -1 40 3.8696760311722755e-03</internalNodes>
          <leafValues>
            -7.4896293878555298e-01 3.6335143446922302e-01</leafValues></_>
        <_>
          <internalNodes>
            0 -1 47 3.6800117231905460e-03</internalNodes>
          <leafValues>
            -5.9866756200790405e-01 4.6246770024299622e-01</leafValues></_></weakClassifiers></_>
    <!-- stage 5 -->
    <_>
      <maxWeakCount>3</maxWeakCount>
      <stageThreshold>-1.0656170845031738e+00</stageThreshold>
      <weakClassifiers>
        <_>
          <internalNodes>
            0 -1 14 8.9008137583732605e-02</internalNodes>
          <leafValues>
            -7.5373792648315430e-01 9.0476191043853760e-01</leafValues></_>
        <_>
          <internalNodes>
            0 -1 8 -6.4695134758949280e-02</internalNodes>
          <leafValues>
            6.1033886671066284e-01 -7.2193223237991333e-01</leafValues></_>
        <_>
          <internalNodes>
            0 -1 19 1.4247176004573703e-03</internalNodes>
          <leafValues>
            -7.5054025650024414e-01 4.1005298495292664e-01</leafValues></_></weakClassifiers></_>
    <!-- stage 6 -->
    <_>
      <maxWeakCount>4</maxWeakCount>
      <stageThreshold>-1.4376819133758545e+00</stageThreshold>
      <weakClassifiers>
        <_>
          <internalNodes>
            0 -1 2 -1.3219615817070007e-01</internalNodes>
          <leafValues>
            -1.6553288698196411e-01 -9.5783925056457520e-01</leafValues></_>
        <_>
          <internalNodes>
            0 -1 32 2.6359783951193094e-03</internalNodes>
          <leafValues>
            -7.9652160406112671e-01 2.3685774207115173e-01</leafValues></_>
        <_>
          <internalNodes>
            0 -1 46 -7.0835710503160954e-03</internalNodes>
          <leafValues>
            2.7652364969253540e-01 -7.5824326276779175e-01</leafValues></_>
        <_>
          <internalNodes>
            0 -1 11 6.3630729913711548e-02</internalNodes>
          <leafValues>
            -8.9279389381408691e-01 2.8261584043502808e-01</leafValues></_></weakClassifiers></_>
    <!-- stage 7 -->
    <_>
      <maxWeakCount>5</maxWeakCount>
      <stageThreshold>-1.3312343358993530e+00</stageThreshold>
      <weakClassifiers>
        <_>
          <internalNodes>
            0 -1 24 1.0746596753597260e-01</internalNodes>
          <leafValues>
            -7.3867595195770264e-01 9.2307692766189575e-01</leafValues></_>
        <_>
          <internalNodes>
            0 -1 17 1.3767872005701065e-02</internalNodes>
          <leafValues>
            -6.2688982486724854e-01 3.5897022485733032e-01</leafValues></_>
        <_>
          <internalNodes>
            0 -1 30 7.4561056680977345e-04</internalNodes>
          <leafValues>
            2.8267306089401245e-01 -8.9375913143157959e-01</leafValues></_>
        <_>
          <internalNodes>
            0 -1 42 -2.4948256090283394e-02</internalNodes>
          <leafValues>
            5.8626103401184082e-01 -4.6004500985145569e-01</leafValues></_>
        <_>
          <internalNodes>
            0 -1 20 -8.8913613581098616e-05</internalNodes>
          <leafValues>
            -8.3460265398025513e-01 3.8691434264183044e-01</leafValues></_></weakClassifiers></_>
    <!-- stage 8 -->
    <_>
      <maxWeakCount>5</maxWeakCount>
      <stageThreshold>-1.8599325418472290e+00</stageThreshold>
      <weakClassifiers>
        <_>
          <internalNodes>
            0 -1 28 -1.0963786393404007e-01</internalNodes>
          <leafValues>
            1.5226337313652039e-01 -8.7460815906524658e-01</leafValues></_>
        <_>
          <internalNodes>
            0 -1 29 1.5133151318877935e-03</internalNodes>
          <leafValues>
            -7.7540302276611328e-01 2.5508648157119751e-01</leafValues></_>
        <_>
          <internalNodes>
            0 -1 25 -8.6041307076811790e-04</internalNodes>
          <leafValues>
            4.3300986289978027e-01 -6.2513601779937744e-01</leafValues></_>
        <_>
          <internalNodes>
            0 -1 23 -4.5012007467448711e-03</internalNodes>
          <leafValues>
            -8.6883538961410522e-01 3.0378097295761108e-01</leafValues></_>
        <_>
          <internalNodes>
            0 -1 26 2.2666092962026596e-02</internalNodes>
          <leafValues>
            2.5717842578887939e-01 -9.2739289999008179e-01</leafValues></_></weakClassifiers></_>
    <!-- stage 9 -->
    <_>
      <maxWeakCount>3</maxWeakCount>
      <stageThreshold>-1.0453633069992065e+00</stageThreshold>
      <weakClassifiers>
        <_>
          <internalNodes>
            0 -1 13 -2.5947785377502441e-01</internalNodes>
          <leafValues>
            1.7921147868037224e-02 -8.7404996156692505e-01</leafValues></_>
        <_>
          <internalNodes>
            0 -1 43 -1.3799374923110008e-02</internalNodes>
          <leafValues>
            8.2299691438674927e-01 -4.9843469262123108e-01</leafValues></_>
        <_>
          <internalNodes>
            0 -1 52 7.9652026761323214e-04</internalNodes>
          <leafValues>
            -5.6484973430633545e-01 4.4917863607406616e-01</leafValues></_></weakClassifiers></_>
    <!-- stage 10 -->
    <_>
      <maxWeakCount>5</maxWeakCount>
      <stageThreshold>-1.6683735847473145e+00</stageThreshold>
      <weakClassifiers>
        <_>
          <internalNodes>
            0 -1 4 3.6884538829326630e-02</internalNodes>
          <leafValues>
            -7.9026216268539429e-01 3.3333334326744080e-01</leafValues></_>
        <_>
          <internalNodes>
            0 -1 31 -1.0450400412082672e-01</internalNodes>
          <leafValues>
            3.1517675518989563e-01 -6.2043970823287964e-01</leafValues></_>
        <_>
          <internalNodes>
            0 -1 10 5.1293196156620979e-03</internalNodes>
          <leafValues>
            2.1716508269309998e-01 -9.5652157068252563e-01</leafValues></_>
        <_>
          <internalNodes>
            0 -1 49 9.9064093083143234e-03</internalNodes>
          <leafValues>
            -5.8662229776382446e-01 4.2129141092300415e-01</leafValues></_>
        <_>
          <internalNodes>
            0 -1 18 3.3812490291893482e-03</internalNodes>
          <leafValues>
            2.1098470687866211e-01 -8.9612823724746704e-01</leafValues></_></weakClassifiers></_>
    <!-- stage 11 -->
    <_>
      <maxWeakCount>5</maxWeakCount>
      <stageThreshold>-1.5529975891113281e+00</stageThreshold>
      <weakClassifiers>
        <_>
          <internalNodes>
            0 -1 6 2.6183925569057465e-02</internalNodes>
          <leafValues>
            -7.8664195537567139e-01 3.9344263076782227e-01</leafValues></_>
        <_>
          <internalNodes>
            0 -1 35 2.8486289083957672e-03</internalNodes>
          <leafValues>
            -5.7997030019760132e-01 4.4365066289901733e-01</leafValues></_>
        <_>
          <internalNodes>
            0 -1 41 -2.5686039589345455e-04</internalNodes>
          <leafValues>
            -9.2504173517227173e-01 2.1180880069732666e-01</leafValues></_>
        <_>
          <internalNodes>
            0 -1 33 3.2587489113211632e-04</internalNodes>
          <leafValues>
            -6.2909775972366333e-01 2.9907491803169250e-01</leafValues></_>
        <_>
          <internalNodes>
            0 -1 1 -1.2755650281906128e-01</internalNodes>
          <leafValues>
            -9.6729123592376709e-01 2.3090358078479767e-01</leafValues></_></weakClassifiers></_>
    <!-- stage 12 -->
    <_>
      <maxWeakCount>5</maxWeakCount>
      <stageThreshold>-1.3012559413909912e+00</stageThreshold>
      <weakClassifiers>
        <_>
          <internalNodes>
            0 -1 0 -4.6429816633462906e-02</internalNodes>
          <leafValues>
            7.5000000000000000e-01 -7.6785713434219360e-01</leafValues></_>
        <_>
          <internalNodes>
            0 -1 12 -2.3900297284126282e-01</internalNodes>
          <leafValues>
            3.7773388624191284e-01 -5.7559955120086670e-01</leafValues></_>
        <_>
          <internalNodes>
            0 -1 15 -8.4480503574013710e-03</internalNodes>
          <leafValues>
            4.6307000517845154e-01 -5.6277245283126831e-01</leafValues></_>
        <_>
          <internalNodes>
            0 -1 7 2.2630840539932251e-03</internalNodes>
          <leafValues>
            2.9000678658485413e-01 -7.7814155817031860e-01</leafValues></_>
        <_>
          <internalNodes>
            0 -1 34 2.5812466628849506e-03</internalNodes>
          <leafValues>
            -5.0424295663833618e-01 4.2978137731552124e-01</leafValues></_></weakClassifiers></_></stages>
  <features>
    <_>
      <rects>
        <_>
          0 0 2 14 -1.</_>
        <_>
          1 0 1 14 2.</_></rects>
      <tilted>0</tilted></_>
    <_>
      <rects>
        <_>
          0 0 8 27 -1.</_>
        <_>
          4 0 4 27 2.</_></rects>
      <tilted>0</tilted></_>
    <_>
      <rects>
        <_>
          0 0 14 11 -1.</_>
        <_>
          7 0 7 11 2.</_></rects>
      <tilted>0</tilted></_>
    <_>
      <rects>
        <_>
          0 1 2 9 -1.</_>
        <_>
          1 1 1 9 2.</_></rects>
      <tilted>0</tilted></_>
    <_>
      <rects>
        <_>
          0 1 2 26 -1.</_>
        <_>
          0 1 1 13 2.</_>
        <_>
          1 14 1 13 2.</_></rects>
      <tilted>0</tilted></_>
    <_>
      <rects>
        <_>
          0 1 11 9 -1.</_>
        <_>
          0 4 11 3 3.</_></rects>
      <tilted>0</tilted></_>
    <_>
      <rects>
        <_>
          0 5 6 6 -1.</_>
        <_>
          0 5 3 3 2.</_>
        <_>
          3 8 3 3 2.</_></rects>
      <tilted>0</tilted></_>
    <_>
      <rects>
        <_>
          0 8 6 6 -1.</_>
        <_>
          0 8 3 3 2.</_>
        <_>
          3 11 3 3 2.</_></rects>
      <tilted>0</tilted></_>
    <_>
      <rects>
        <_>
          0 11 3 12 -1.</_>
        <_>
          0 17 3 6 2.</_></rects>
      <tilted>0</tilted></_>
    <_>
      <rects>
        <_>
          0 11 10 10 -1.</_>
        <_>
          0 11 5 5 2.</_>
        <_>
          5 16 5 5 2.</_></rects>
      <tilted>0</tilted></_>
    <_>
      <rects>
        <_>
          1 1 4 11 -1.</_>
        <_>
          3 1 2 11 2.</_></rects>
      <tilted>0</tilted></_>
    <_>
      <rects>
        <_>
          1 1 12 22 -1.</_>
        <_>
          1 1 6 11 2.</_>
        <_>
          7 12 6 11 2.</_></rects>
      <tilted>0</tilted></_>
    <_>
      <rects>
        <_>
          1 1 12 24 -1.</_>
        <_>
          7 1 6 24 2.</_></rects>
      <tilted>0</tilted></_>
    <_>
      <rects>
        <_>
          1 1 8 24 -1.</_>
        <_>
          1 13 8 12 2.</_></rects>
      <tilted>0</tilted></_>
    <_>
      <rects>
        <_>
          1 3 12 6 -1.</_>
        <_>
          1 3 6 3 2.</_>
        <_>
          7 6 6 3 2.</_></rects>
      <tilted>0</tilted></_>
    <_>
      <rects>
        <_>
          1 6 9 3 -1.</_>
        <_>
          4 6 3 3 3.</_></rects>
      <tilted>0</tilted></_>
    <_>
      <rects>
        <_>
          1 9 10 12 -1.</_>
        <_>
          1 9 5 6 2.</_>
        <_>
          6 15 5 6 2.</_></rects>
      <tilted>0</tilted></_>
    <_>
      <rects>
        <_>
          1 20 4 7 -1.</_>
        <_>
          3 20 2 7 2.</_></rects>
      <tilted>0</tilted></_>
    <_>
      <rects>
        <_>
          1 22 5 4 -1.</_>
        <_>
          1 24 5 2 2.</_></rects>
      <tilted>0</tilted></_>
    <_>
      <rects>
        <_>
          2 2 1 6 -1.</_>
        <_>
          2 4 1 2 3.</_></rects>
      <tilted>0</tilted></_>
    <_>
      <rects>
        <_>
          2 4 3 1 -1.</_>
        <_>
          3 4 1 1 3.</_></rects>
      <tilted>0</tilted></_>
    <_>
      <rects>
        <_>
          2 14 2 1 -1.</_>
        <_>
          3 14 1 1 2.</_></rects>
      <tilted>0</tilted></_>
    <_>
      <rects>
        <_>
          2 22 3 1 -1.</_>
        <_>
          3 22 1 1 3.</_></rects>
      <tilted>0</tilted></_>
    <_>
      <rects>
        <_>
          2 25 10 1 -1.</_>
        <_>
          7 25 5 1 2.</_></rects>
      <tilted>0</tilted></_>
    <_>
      <rects>
        <_>
          3 6 12 3 -1.</_>
        <_>
          7 6 4 3 3.</_></rects>
      <tilted>0</tilted></_>
    <_>
      <rects>
        <_>
          3 19 2 1 -1.</_>
        <_>
          4 19 1 1 2.</_></rects>
      <tilted>0</tilted></_>
    <_>
      <rects>
        <_>
          4 17 6 10 -1.</_>
        <_>
          7 17 3 10 2.</_></rects>
      <tilted>0</tilted></_>
    <_>
      <rects>
        <_>
          5 5 2 22 -1.</_>
        <_>
          5 16 2 11 2.</_></rects>
      <tilted>0</tilted></_>
    <_>
      <rects>
        <_>
          5 5 9 18 -1.</_>
        <_>
          5 14 9 9 2.</_></rects>
      <tilted>0</tilted></_>
    <_>
      <rects>
        <_>
          5 21 2 6 -1.</_>
        <_>
          5 21 1 3 2.</_>
        <_>
          6 24 1 3 2.</_></rects>
      <tilted>0</tilted></_>
    <_>
      <rects>
        <_>
          5 24 4 2 -1.</_>
        <_>
          7 24 2 2 2.</_></rects>
      <tilted>0</tilted></_>
    <_>
      <rects>
        <_>
          6 5 9 18 -1.</_>
        <_>
          6 14 9 9 2.</_></rects>
      <tilted>0</tilted></_>
    <_>
      <rects>
        <_>
          6 7 3 3 -1.</_>
        <_>
          7 7 1 3 3.</_></rects>
      <tilted>0</tilted></_>
    <_>
      <rects>
        <_>
          6 9 1 3 -1.</_>
        <_>
          6 10 1 1 3.</_></rects>
      <tilted>0</tilted></_>
    <_>
      <rects>
        <_>
          6 9 8 2 -1.</_>
        <_>
          6 10 8 1 2.</_></rects>
      <tilted>0</tilted></_>
    <_>
      <rects>
        <_>
          6 18 4 1 -1.</_>
        <_>
          8 18 2 1 2.</_></rects>
      <tilted>0</tilted></_>
    <_>
      <rects>
        <_>
          6 24 2 1 -1.</_>
        <_>
          7 24 1 1 2.</_></rects>
      <tilted>0</tilted></_>
    <_>
      <rects>
        <_>
          7 2 1 9 -1.</_>
        <_>
          7 5 1 3 3.</_></rects>
      <tilted>0</tilted></_>
    <_>
      <rects>
        <_>
          7 15 2 1 -1.</_>
        <_>
          8 15 1 1 2.</_></rects>
      <tilted>0</tilted></_>
    <_>
      <rects>
        <_>
          7 18 2 2 -1.</_>
        <_>
          7 18 1 1 2.</_>
        <_>
          8 19 1 1 2.</_></rects>
      <tilted>0</tilted></_>
    <_>
      <rects>
        <_>
          8 2 3 4 -1.</_>
        <_>
          8 4 3 2 2.</_></rects>
      <tilted>0</tilted></_>
    <_>
      <rects>
        <_>
          8 4 3 1 -1.</_>
        <_>
          9 4 1 1 3.</_></rects>
      <tilted>0</tilted></_>
    <_>
      <rects>
        <_>
          8 4 6 6 -1.</_>
        <_>
          8 7 6 3 2.</_></rects>
      <tilted>0</tilted></_>
    <_>
      <rects>
        <_>
          9 3 2 6 -1.</_>
        <_>
          9 5 2 2 3.</_></rects>
      <tilted>0</tilted></_>
    <_>
      <rects>
        <_>
          9 13 3 7 -1.</_>
        <_>
          10 13 1 7 3.</_></rects>
      <tilted>0</tilted></_>
    <_>
      <rects>
        <_>
          9 14 3 1 -1.</_>
        <_>
          10 14 1 1 3.</_></rects>
      <tilted>0</tilted></_>
    <_>
      <rects>
        <_>
          9 16 4 7 -1.</_>
        <_>
          11 16 2 7 2.</_></rects>
      <tilted>0</tilted></_>
    <_>
      <rects>
        <_>
          9 18 6 4 -1.</_>
        <_>
          9 18 3 2 2.</_>
        <_>
          12 20 3 2 2.</_></rects>
      <tilted>0</tilted></_>
    <_>
      <rects>
        <_>
          10 14 2 12 -1.</_>
        <_>
          10 14 1 6 2.</_>
        <_>
          11 20 1 6 2.</_></rects>
      <tilted>0</tilted></_>
    <_>
      <rects>
        <_>
          10 19 4 6 -1.</_>
        <_>
          10 21 4 2 3.</_></rects>
      <tilted>0</tilted></_>
    <_>
      <rects>
        <_>
          10 22 2 2 -1.</_>
        <_>
          10 23 2 1 2.</_></rects>
      <tilted>0</tilted></_>
    <_>
      <rects>
        <_>
          11 6 2 6 -1.</_>
        <_>
          11 8 2 2 3.</_></rects>
      <tilted>0</tilted></_>
    <_>
      <rects>
        <_>
          12 0 1 2 -1.</_>
        <_>
          12 1 1 1 2.</_></rects>
      <tilted>0</tilted></_>
    <_>
      <rects>
        <_>
          12 19 2 8 -1.</_>
        <_>
          12 19 1 4 2.</_>
        <_>
          13 23 1 4 2.</_></rects>
      <tilted>0</tilted></_></features></cascade>
</opencv_storage>
