<?xml version="1.0"?>
<opencv_storage>
<cascade>
  <stageType>BOOST</stageType>
  <featureType>HAAR</featureType>
  <height>24</height>
  <width>24</width>
  <stageParams>
    <boostType>GAB</boostType>
    <minHitRate>9.9500000476837158e-01</minHitRate>
    <maxFalseAlarm>5.0000000000000000e-01</maxFalseAlarm>
    <weightTrimRate>9.4999998807907104e-01</weightTrimRate>
    <maxDepth>1</maxDepth>
    <maxWeakCount>100</maxWeakCount></stageParams>
  <featureParams>
    <maxCatCount>0</maxCatCount>
    <featSize>1</featSize>
    <mode>BASIC</mode></featureParams>
  <stageNum>15</stageNum>
  <stages>
    <!-- stage 0 -->
    <_>
      <maxWeakCount>3</maxWeakCount>
      <stageThreshold>-1.5812108516693115e+00</stageThreshold>
      <weakClassifiers>
        <_>
          <internalNodes>
            0 -1 49 -4.4522248208522797e-02</internalNodes>
          <leafValues>
            6.2500000000000000e-01 -9.6410769224166870e-01</leafValues></_>
        <_>
          <internalNodes>
            0 -1 13 5.4654318839311600e-02</internalNodes>
          <leafValues>
            -9.4298404455184937e-01 4.6223571896553040e-01</leafValues></_>
        <_>
          <internalNodes>
            0 -1 3 -9.5520331524312496e-04</internalNodes>
          <leafValues>
            3.2588085532188416e-01 -9.7378402948379517e-01</leafValues></_></weakClassifiers></_>
    <!-- stage 1 -->
    <_>
      <maxWeakCount>3</maxWeakCount>
      <stageThreshold>-1.3487533330917358e+00</stageThreshold>
      <weakClassifiers>
        <_>
          <internalNodes>
            0 -1 26 -6.4431831240653992e-02</internalNodes>
          <leafValues>
            3.5555556416511536e-01 -9.5568984746932983e-01</leafValues></_>
        <_>
          <internalNodes>
            0 -1 57 1.2936435639858246e-02</internalNodes>
          <leafValues>
            -8.9537882804870605e-01 4.4109737873077393e-01</leafValues></_>
        <_>
          <internalNodes>
            0 -1 45 3.0422342941164970e-02</internalNodes>
          <leafValues>
            -8.0892997980117798e-01 5.4962998628616333e-01</leafValues></_></weakClassifiers></_>
    <!-- stage 2 -->
    <_>
      <maxWeakCount>4</maxWeakCount>
      <stageThreshold>-2.2694594860076904e+00</stageThreshold>
      <weakClassifiers>
        <_>
          <internalNodes>
            0 -1 20 -2.8899922966957092e-02</internalNodes>
          <leafValues>
            4.3283581733703613e-01 -9.3110233545303345e-01</leafValues></_>
        <_>
          <internalNodes>
            0 -1 53 -3.9936535060405731e-02</internalNodes>
          <leafValues>
            3.5543593764305115e-01 -8.3484280109405518e-01</leafValues></_>
        <_>
          <internalNodes>
            0 -1 25 -6.9438731297850609e-03</internalNodes>
          <leafValues>
            4.2223855853080750e-01 -8.3806145191192627e-01</leafValues></_>
        <_>
          <internalNodes>
            0 -1 28 -2.6527000591158867e-04</internalNodes>
          <leafValues>
            3.3454701304435730e-01 -9.4557547569274902e-01</leafValues></_></weakClassifiers></_>
    <!-- stage 3 -->
    <_>
      <maxWeakCount>5</maxWeakCount>
      <stageThreshold>-1.6220465898513794e+00</stageThreshold>
      <weakClassifiers>
        <_>
          <internalNodes>
            0 -1 2 -1.1681854724884033e-01</internalNodes>
          <leafValues>
            4.2372882366180420e-01 -9.1992187500000000e-01</leafValues></_>
        <_>
          <internalNodes>
            0 -1 19 1.3174748420715332e-01</internalNodes>
          <leafValues>
            -7.8369539976119995e-01 5.7961124181747437e-01</leafValues></_>
        <_>
          <internalNodes>
            0 -1 64 2.9019075445830822e-03</internalNodes>
          <leafValues>
            -7.6089304685592651e-01 5.0042039155960083e-01</leafValues></_>
        <_>
          <internalNodes>
            0 -1 22 -9.3676624819636345e-03</internalNodes>
          <leafValues>
            4.7722581028938293e-01 -7.6609605550765991e-01</leafValues></_>
        <_>
          <internalNodes>
            0 -1 0 1.0404060594737530e-02</internalNodes>
          <leafValues>
            3.6523795127868652e-01 -1.</leafValues></_></weakClassifiers></_>
    <!-- stage 4 -->
    <_>
      <maxWeakCount>4</maxWeakCount>
      <stageThreshold>-2.0319573879241943e+00</stageThreshold>
      <weakClassifiers>
        <_>
          <internalNodes>
            0 -1 52 -4.5230120420455933e-02</internalNodes>
          <leafValues>
            7.5757575035095215e-01 -8.9714282751083374e-01</leafValues></_>
        <_>
          <internalNodes>
            0 -1 39 6.4842432737350464e-02</internalNodes>
          <leafValues>
            -7.8701645135879517e-01 3.2018271088600159e-01</leafValues></_>
        <_>
          <internalNodes>
            0 -1 9 -3.2064244151115417e-03</internalNodes>
          <leafValues>
            4.1831034421920776e-01 -7.8779268264770508e-01</leafValues></_>
        <_>
          <internalNodes>
            0 -1 40 6.8930564448237419e-03</internalNodes>
          <leafValues>
            -6.6720449924468994e-01 4.8262965679168701e-01</leafValues></_></weakClassifiers></_>
    <!-- stage 5 -->
    <_>
      <maxWeakCount>5</maxWeakCount>
      <stageThreshold>-1.6628327369689941e+00</stageThreshold>
      <weakClassifiers>
        <_>
          <internalNodes>
            0 -1 34 1.7760594189167023e-01</internalNodes>
          <leafValues>
            -8.9714282751083374e-01 7.5757575035095215e-01</leafValues></_>
        <_>
          <internalNodes>
            0 -1 16 1.2532483786344528e-02</internalNodes>
          <leafValues>
            -7.6631861925125122e-01 3.0212110280990601e-01</leafValues></_>
        <_>
          <internalNodes>
            0 -1 43 4.1272616945207119e-03</internalNodes>
          <leafValues>
            -7.9127269983291626e-01 3.6643764376640320e-01</leafValues></_>
        <_>
          <internalNodes>
            0 -1 58 4.1614058427512646e-03</internalNodes>
          <leafValues>
            -7.5249743461608887e-01 4.0780931711196899e-01</leafValues></_>
        <_>
          <internalNodes>
            0 -1 59 -8.2199613098055124e-04</internalNodes>
          <leafValues>
            4.1842970252037048e-01 -6.8175119161605835e-01</leafValues></_></weakClassifiers></_>
    <!-- stage 6 -->
    <_>
      <maxWeakCount>3</maxWeakCount>
      <stageThreshold>-1.3766615390777588e+00</stageThreshold>
      <weakClassifiers>
        <_>
          <internalNodes>
            0 -1 46 2.3413605988025665e-02</internalNodes>
          <leafValues>
            -9.2687749862670898e-01 2.9577463865280151e-01</leafValues></_>
        <_>
          <internalNodes>
            0 -1 1 -7.0219218730926514e-02</internalNodes>
          <leafValues>
            4.3191802501678467e-01 -7.6935702562332153e-01</leafValues></_>
        <_>
          <internalNodes>
            0 -1 56 -6.0203187167644501e-03</internalNodes>
          <leafValues>
            3.5156199336051941e-01 -8.8170212507247925e-01</leafValues></_></weakClassifiers></_>
    <!-- stage 7 -->
    <_>
      <maxWeakCount>5</maxWeakCount>
      <stageThreshold>-1.9583793878555298e+00</stageThreshold>
      <weakClassifiers>
        <_>
          <internalNodes>
            0 -1 42 4.6077262610197067e-02</internalNodes>
          <leafValues>
            -8.9655172824859619e-01 4.8717948794364929e-01</leafValues></_>
        <_>
          <internalNodes>
            0 -1 17 2.9707510024309158e-02</internalNodes>
          <leafValues>
            -8.6179471015930176e-01 5.3130652755498886e-02</leafValues></_>
        <_>
          <internalNodes>
            0 -1 63 6.5811595413833857e-04</internalNodes>
          <leafValues>
            -8.2123291492462158e-01 2.6205906271934509e-01</leafValues></_>
        <_>
          <internalNodes>
            0 -1 24 1.4967575669288635e-02</internalNodes>
          <leafValues>
            -7.4159598350524902e-01 3.9178133010864258e-01</leafValues></_>
        <_>
          <internalNodes>
            0 -1 54 1.7173233209177852e-04</internalNodes>
          <leafValues>
            -8.5387337207794189e-01 3.3948323130607605e-01</leafValues></_></weakClassifiers></_>
    <!-- stage 8 -->
    <_>
      <maxWeakCount>3</maxWeakCount>
      <stageThreshold>-1.4114382266998291e+00</stageThreshold>
      <weakClassifiers>
        <_>
          <internalNodes>
            0 -1 35 2.7068239450454712e-01</internalNodes>
          <leafValues>
            -8.9665073156356812e-01 5.2631580829620361e-01</leafValues></_>
        <_>
          <internalNodes>
            0 -1 23 2.1265916526317596e-02</internalNodes>
          <leafValues>
            -7.2804760932922363e-01 3.2518318295478821e-01</leafValues></_>
        <_>
          <internalNodes>
            0 -1 61 1.9090226851403713e-04</internalNodes>
          <leafValues>
            2.1326002478599548e-01 -1.</leafValues></_></weakClassifiers></_>
    <!-- stage 9 -->
    <_>
      <maxWeakCount>4</maxWeakCount>
      <stageThreshold>-2.2415030002593994e+00</stageThreshold>
      <weakClassifiers>
        <_>
          <internalNodes>
            0 -1 41 -4.6359002590179443e-02</internalNodes>
          <leafValues>
            6.2500000000000000e-01 -8.9153188467025757e-01</leafValues></_>
        <_>
          <internalNodes>
            0 -1 50 -8.1195915117859840e-03</internalNodes>
          <leafValues>
            4.0840438008308411e-01 -7.5405788421630859e-01</leafValues></_>
        <_>
          <internalNodes>
            0 -1 12 -5.2028005011379719e-03</internalNodes>
          <leafValues>
            2.4064281582832336e-01 -8.8507509231567383e-01</leafValues></_>
        <_>
          <internalNodes>
            0 -1 8 -7.6981761958450079e-04</internalNodes>
          <leafValues>
            2.8916180133819580e-01 -8.8568156957626343e-01</leafValues></_></weakClassifiers></_>
    <!-- stage 10 -->
    <_>
      <maxWeakCount>5</maxWeakCount>
      <stageThreshold>-1.6177971363067627e+00</stageThreshold>
      <weakClassifiers>
        <_>
          <internalNodes>
            0 -1 6 5.1372677087783813e-02</internalNodes>
          <leafValues>
            -9.0476191043853760e-01 2.5925925374031067e-01</leafValues></_>
        <_>
          <internalNodes>
            0 -1 29 -1.8670754507184029e-02</internalNodes>
          <leafValues>
            3.5380733013153076e-01 -7.0073992013931274e-01</leafValues></_>
        <_>
          <internalNodes>
            0 -1 51 3.0075211543589830e-04</internalNodes>
          <leafValues>
            2.2990778088569641e-01 -9.7276055812835693e-01</leafValues></_>
        <_>
          <internalNodes>
            0 -1 4 -3.1986705958843231e-02</internalNodes>
          <leafValues>
            5.7834458351135254e-01 -5.0126463174819946e-01</leafValues></_>
        <_>
          <internalNodes>
            0 -1 60 -3.4171011066064239e-04</internalNodes>
          <leafValues>
            -7.9548567533493042e-01 3.5620239377021790e-01</leafValues></_></weakClassifiers></_>
    <!-- stage 11 -->
    <_>
      <maxWeakCount>5</maxWeakCount>
      <stageThreshold>-1.7996439933776855e+00</stageThreshold>
      <weakClassifiers>
        <_>
          <internalNodes>
            0 -1 18 3.9409674704074860e-02</internalNodes>
          <leafValues>
            -8.9595377445220947e-01 2.8888890147209167e-01</leafValues></_>
        <_>
          <internalNodes>
            0 -1 21 -1.5532380901277065e-02</internalNodes>
          <leafValues>
            5.8487498760223389e-01 -6.4314836263656616e-01</leafValues></_>
        <_>
          <internalNodes>
            0 -1 10 -4.3388968333601952e-04</internalNodes>
          <leafValues>
            2.8015106916427612e-01 -8.6636620759963989e-01</leafValues></_>
        <_>
          <internalNodes>
            0 -1 32 1.1328230903018266e-04</internalNodes>
          <leafValues>
            -8.0276924371719360e-01 3.2104444503784180e-01</leafValues></_>
        <_>
          <internalNodes>
            0 -1 36 -2.0341610070317984e-03</internalNodes>
          <leafValues>
            -9.6034497022628784e-01 2.8477990627288818e-01</leafValues></_></weakClassifiers></_>
    <!-- stage 12 -->
    <_>
      <maxWeakCount>5</maxWeakCount>
      <stageThreshold>-2.1189043521881104e+00</stageThreshold>
      <weakClassifiers>
        <_>
          <internalNodes>
            0 -1 37 -2.3993395268917084e-02</internalNodes>
          <leafValues>
            3.6585366725921631e-01 -8.9443379640579224e-01</leafValues></_>
        <_>
          <internalNodes>
            0 -1 15 1.7708215117454529e-01</internalNodes>
          <leafValues>
            -7.3920720815658569e-01 1.9268496334552765e-01</leafValues></_>
        <_>
          <internalNodes>
            0 -1 44 1.0460822377353907e-03</internalNodes>
          <leafValues>
            -8.9728170633316040e-01 2.1904312074184418e-01</leafValues></_>
        <_>
          <internalNodes>
            0 -1 7 4.7702658921480179e-03</internalNodes>
          <leafValues>
            1.9819137454032898e-01 -9.8007458448410034e-01</leafValues></_>
        <_>
          <internalNodes>
            0 -1 31 -2.3558835964649916e-03</internalNodes>
          <leafValues>
            -9.5684897899627686e-01 2.1382692456245422e-01</leafValues></_></weakClassifiers></_>
    <!-- stage 13 -->
    <_>
      <maxWeakCount>5</maxWeakCount>
      <stageThreshold>-1.7214425802230835e+00</stageThreshold>
      <weakClassifiers>
        <_>
          <internalNodes>
            0 -1 30 7.8918889164924622e-02</internalNodes>
          <leafValues>
            -8.9971071481704712e-01 3.4782609343528748e-01</leafValues></_>
        <_>
          <internalNodes>
            0 -1 47 -4.6719580888748169e-02</internalNodes>
          <leafValues>
            5.4961961507797241e-01 -6.3934314250946045e-01</leafValues></_>
        <_>
          <internalNodes>
            0 -1 33 -5.8330647647380829e-02</internalNodes>
          <leafValues>
            4.9357059597969055e-01 -5.6625139713287354e-01</leafValues></_>
        <_>
          <internalNodes>
            0 -1 11 7.1869348175823689e-05</internalNodes>
          <leafValues>
            2.7134150266647339e-01 -9.3742918968200684e-01</leafValues></_>
        <_>
          <internalNodes>
            0 -1 14 -5.2217221818864346e-03</internalNodes>
          <leafValues>
            2.6146987080574036e-01 -9.4192993640899658e-01</leafValues></_></weakClassifiers></_>
    <!-- stage 14 -->
    <_>
      <maxWeakCount>6</maxWeakCount>
      <stageThreshold>-2.1485996246337891e+00</stageThreshold>
      <weakClassifiers>
        <_>
          <internalNodes>
            0 -1 38 -2.2896647453308105e-02</internalNodes>
          <leafValues>
            8.0952382087707520e-01 -8.7947267293930054e-01</leafValues></_>
        <_>
          <internalNodes>
            0 -1 48 -5.8098837733268738e-02</internalNodes>
          <leafValues>
            5.5380588769912720e-01 -6.8639391660690308e-01</leafValues></_>
        <_>
          <internalNodes>
            0 -1 55 -1.6203642007894814e-04</internalNodes>
          <leafValues>
            3.5763165354728699e-01 -7.9292494058609009e-01</leafValues></_>
        <_>
          <internalNodes>
            0 -1 27 3.5962392576038837e-04</internalNodes>
          <leafValues>
            -6.7719876766204834e-01 4.1599175333976746e-01</leafValues></_>
        <_>
          <internalNodes>
            0 -1 5 2.2521999198943377e-03</internalNodes>
          <leafValues>
            -5.4093033075332642e-01 4.6351537108421326e-01</leafValues></_>
        <_>
          <internalNodes>
            0 -1 62 -5.2076698921155185e-05</internalNodes>
          <leafValues>
            4.1788166761398315e-01 -7.2668123245239258e-01</leafValues></_></weakClassifiers></_></stages>
  <features>
    <_>
      <rects>
        <_>
          0 1 4 20 -1.</_>
        <_>
          0 11 4 10 2.</_></rects>
      <tilted>0</tilted></_>
    <_>
      <rects>
        <_>
          0 3 6 18 -1.</_>
        <_>
          3 3 3 18 2.</_></rects>
      <tilted>0</tilted></_>
    <_>
      <rects>
        <_>
          0 5 9 15 -1.</_>
        <_>
          3 5 3 15 3.</_></rects>
      <tilted>0</tilted></_>
    <_>
      <rects>
        <_>
          0 7 2 6 -1.</_>
        <_>
          1 7 1 6 2.</_></rects>
      <tilted>0</tilted></_>
    <_>
      <rects>
        <_>
          0 18 12 6 -1.</_>
        <_>
          0 18 6 3 2.</_>
        <_>
          6 21 6 3 2.</_></rects>
      <tilted>0</tilted></_>
    <_>
      <rects>
        <_>
          0 18 17 3 -1.</_>
        <_>
          0 19 17 1 3.</_></rects>
      <tilted>0</tilted></_>
    <_>
      <rects>
        <_>
          0 20 24 1 -1.</_>
        <_>
          8 20 8 1 3.</_></rects>
      <tilted>0</tilted></_>
    <_>
      <rects>
        <_>
          1 4 12 3 -1.</_>
        <_>
          1 5 12 1 3.</_></rects>
      <tilted>0</tilted></_>
    <_>
      <rects>
        <_>
          1 5 2 4 -1.</_>
        <_>
          1 7 2 2 2.</_></rects>
      <tilted>0</tilted></_>
    <_>
      <rects>
        <_>
          1 10 2 12 -1.</_>
        <_>
          2 10 1 12 2.</_></rects>
      <tilted>0</tilted></_>
    <_>
      <rects>
        <_>
          1 17 2 4 -1.</_>
        <_>
          2 17 1 4 2.</_></rects>
      <tilted>0</tilted></_>
    <_>
      <rects>
        <_>
          2 0 1 2 -1.</_>
        <_>
          2 1 1 1 2.</_></rects>
      <tilted>0</tilted></_>
    <_>
      <rects>
        <_>
          2 0 5 6 -1.</_>
        <_>
          2 3 5 3 2.</_></rects>
      <tilted>0</tilted></_>
    <_>
      <rects>
        <_>
          2 0 12 10 -1.</_>
        <_>
          2 0 6 5 2.</_>
        <_>
          8 5 6 5 2.</_></rects>
      <tilted>0</tilted></_>
    <_>
      <rects>
        <_>
          2 1 8 3 -1.</_>
        <_>
          6 1 4 3 2.</_></rects>
      <tilted>0</tilted></_>
    <_>
      <rects>
        <_>
          2 4 21 9 -1.</_>
        <_>
          9 4 7 9 3.</_></rects>
      <tilted>0</tilted></_>
    <_>
      <rects>
        <_>
          2 22 17 2 -1.</_>
        <_>
          2 23 17 1 2.</_></rects>
      <tilted>0</tilted></_>
    <_>
      <rects>
        <_>
          3 1 8 8 -1.</_>
        <_>
          3 1 4 4 2.</_>
        <_>
          7 5 4 4 2.</_></rects>
      <tilted>0</tilted></_>
    <_>
      <rects>
        <_>
          3 1 10 4 -1.</_>
        <_>
          3 1 5 2 2.</_>
        <_>
          8 3 5 2 2.</_></rects>
      <tilted>0</tilted></_>
    <_>
      <rects>
        <_>
          3 4 18 7 -1.</_>
        <_>
          9 4 6 7 3.</_></rects>
      <tilted>0</tilted></_>
    <_>
      <rects>
        <_>
          3 20 12 4 -1.</_>
        <_>
          3 20 6 2 2.</_>
        <_>
          9 22 6 2 2.</_></rects>
      <tilted>0</tilted></_>
    <_>
      <rects>
        <_>
          3 21 14 2 -1.</_>
        <_>
          3 21 7 1 2.</_>
        <_>
          10 22 7 1 2.</_></rects>
      <tilted>0</tilted></_>
    <_>
      <rects>
        <_>
          4 0 7 4 -1.</_>
        <_>
          4 2 7 2 2.</_></rects>
      <tilted>0</tilted></_>
    <_>
      <rects>
        <_>
          4 1 6 6 -1.</_>
        <_>
          4 1 3 3 2.</_>
        <_>
          7 4 3 3 2.</_></rects>
      <tilted>0</tilted></_>
    <_>
      <rects>
        <_>
          4 11 6 9 -1.</_>
        <_>
          4 14 6 3 3.</_></rects>
      <tilted>0</tilted></_>
    <_>
      <rects>
        <_>
          5 0 5 4 -1.</_>
        <_>
          5 2 5 2 2.</_></rects>
      <tilted>0</tilted></_>
    <_>
      <rects>
        <_>
          5 0 13 6 -1.</_>
        <_>
          5 2 13 2 3.</_></rects>
      <tilted>0</tilted></_>
    <_>
      <rects>
        <_>
          6 6 2 1 -1.</_>
        <_>
          7 6 1 1 2.</_></rects>
      <tilted>0</tilted></_>
    <_>
      <rects>
        <_>
          6 18 2 2 -1.</_>
        <_>
          6 19 2 1 2.</_></rects>
      <tilted>0</tilted></_>
    <_>
      <rects>
        <_>
          7 1 11 2 -1.</_>
        <_>
          7 2 11 1 2.</_></rects>
      <tilted>0</tilted></_>
    <_>
      <rects>
        <_>
          7 2 4 12 -1.</_>
        <_>
          7 6 4 4 3.</_></rects>
      <tilted>0</tilted></_>
    <_>
      <rects>
        <_>
          7 4 1 16 -1.</_>
        <_>
          7 12 1 8 2.</_></rects>
      <tilted>0</tilted></_>
    <_>
      <rects>
        <_>
          7 5 1 2 -1.</_>
        <_>
          7 6 1 1 2.</_></rects>
      <tilted>0</tilted></_>
    <_>
      <rects>
        <_>
          7 7 12 9 -1.</_>
        <_>
          7 10 12 3 3.</_></rects>
      <tilted>0</tilted></_>
    <_>
      <rects>
        <_>
          8 1 9 10 -1.</_>
        <_>
          8 6 9 5 2.</_></rects>
      <tilted>0</tilted></_>
    <_>
      <rects>
        <_>
          8 1 10 15 -1.</_>
        <_>
          8 6 10 5 3.</_></rects>
      <tilted>0</tilted></_>
    <_>
      <rects>
        <_>
          8 5 10 2 -1.</_>
        <_>
          8 5 5 1 2.</_>
        <_>
          13 6 5 1 2.</_></rects>
      <tilted>0</tilted></_>
    <_>
      <rects>
        <_>
          8 11 10 3 -1.</_>
        <_>
          8 12 10 1 3.</_></rects>
      <tilted>0</tilted></_>
    <_>
      <rects>
        <_>
          9 0 6 3 -1.</_>
        <_>
          9 1 6 1 3.</_></rects>
      <tilted>0</tilted></_>
    <_>
      <rects>
        <_>
          9 2 9 9 -1.</_>
        <_>
          9 5 9 3 3.</_></rects>
      <tilted>0</tilted></_>
    <_>
      <rects>
        <_>
          9 12 9 4 -1.</_>
        <_>
          9 14 9 2 2.</_></rects>
      <tilted>0</tilted></_>
    <_>
      <rects>
        <_>
          9 17 12 4 -1.</_>
        <_>
          9 17 6 2 2.</_>
        <_>
          15 19 6 2 2.</_></rects>
      <tilted>0</tilted></_>
    <_>
      <rects>
        <_>
          9 17 8 6 -1.</_>
        <_>
          9 19 8 2 3.</_></rects>
      <tilted>0</tilted></_>
    <_>
      <rects>
        <_>
          10 3 7 2 -1.</_>
        <_>
          10 4 7 1 2.</_></rects>
      <tilted>0</tilted></_>
    <_>
      <rects>
        <_>
          10 4 3 2 -1.</_>
        <_>
          10 5 3 1 2.</_></rects>
      <tilted>0</tilted></_>
    <_>
      <rects>
        <_>
          10 4 7 9 -1.</_>
        <_>
          10 7 7 3 3.</_></rects>
      <tilted>0</tilted></_>
    <_>
      <rects>
        <_>
          10 20 10 4 -1.</_>
        <_>
          10 20 5 2 2.</_>
        <_>
          15 22 5 2 2.</_></rects>
      <tilted>0</tilted></_>
    <_>
      <rects>
        <_>
          11 0 4 6 -1.</_>
        <_>
          11 2 4 2 3.</_></rects>
      <tilted>0</tilted></_>
    <_>
      <rects>
        <_>
          11 0 5 6 -1.</_>
        <_>
          11 2 5 2 3.</_></rects>
      <tilted>0</tilted></_>
    <_>
      <rects>
        <_>
          11 1 12 6 -1.</_>
        <_>
          11 1 6 3 2.</_>
        <_>
          17 4 6 3 2.</_></rects>
      <tilted>0</tilted></_>
    <_>
      <rects>
        <_>
          11 2 10 2 -1.</_>
        <_>
          11 2 5 1 2.</_>
        <_>
          16 3 5 1 2.</_></rects>
      <tilted>0</tilted></_>
    <_>
      <rects>
        <_>
          11 5 2 2 -1.</_>
        <_>
          11 5 1 1 2.</_>
        <_>
          12 6 1 1 2.</_></rects>
      <tilted>0</tilted></_>
    <_>
      <rects>
        <_>
          11 16 8 6 -1.</_>
        <_>
          11 16 4 3 2.</_>
        <_>
          15 19 4 3 2.</_></rects>
      <tilted>0</tilted></_>
    <_>
      <rects>
        <_>
          12 1 10 6 -1.</_>
        <_>
          12 1 5 3 2.</_>
        <_>
          17 4 5 3 2.</_></rects>
      <tilted>0</tilted></_>
    <_>
      <rects>
        <_>
          12 5 1 2 -1.</_>
        <_>
          12 6 1 1 2.</_></rects>
      <tilted>0</tilted></_>
    <_>
      <rects>
        <_>
          17 5 2 1 -1.</_>
        <_>
          18 5 1 1 2.</_></rects>
      <tilted>0</tilted></_>
    <_>
      <rects>
        <_>
          17 15 4 6 -1.</_>
        <_>
          17 18 4 3 2.</_></rects>
      <tilted>0</tilted></_>
    <_>
      <rects>
        <_>
          17 20 6 4 -1.</_>
        <_>
          17 22 6 2 2.</_></rects>
      <tilted>0</tilted></_>
    <_>
      <rects>
        <_>
          18 1 4 5 -1.</_>
        <_>
          20 1 2 5 2.</_></rects>
      <tilted>0</tilted></_>
    <_>
      <rects>
        <_>
          18 15 2 3 -1.</_>
        <_>
          19 15 1 3 2.</_></rects>
      <tilted>0</tilted></_>
    <_>
      <rects>
        <_>
          19 0 2 3 -1.</_>
        <_>
          19 1 2 1 3.</_></rects>
      <tilted>0</tilted></_>
    <_>
      <rects>
        <_>
          19 0 3 2 -1.</_>
        <_>
          19 1 3 1 2.</_></rects>
      <tilted>0</tilted></_>
    <_>
      <rects>
        <_>
          22 6 1 2 -1.</_>
        <_>
          22 7 1 1 2.</_></rects>
      <tilted>0</tilted></_>
    <_>
      <rects>
        <_>
          22 8 2 4 -1.</_>
        <_>
          23 8 1 4 2.</_></rects>
      <tilted>0</tilted></_>
    <_>
      <rects>
        <_>
          22 11 2 11 -1.</_>
        <_>
          23 11 1 11 2.</_></rects>
      <tilted>0</tilted></_></features></cascade>
</opencv_storage>
